tree
version=v4
num_class=1
num_tree_per_iteration=1
label_index=0
max_feature_idx=7
objective=binary sigmoid:1
feature_names=on_time_a planned_layover_sec p85_pct_b planned_dur_b range7525_b ampeak_a pmpeak_a route_pair
feature_infos=[0:1] [0:840] [0:2.5727777777777776] [120:4260] [0:1496.5] [0:1] [0:1] -1:436:243:770:950:417:153:702:265:203:666:827:499:745:845:221:401:559:339:939:310:540:874:636:526:577:798:9:622:56:898:971:317:862:352:916:686:482:46:960:294:724:102:208:160:814:547:311:408:449:83:841:127:421:177:506:947:397:871:502:178:343:959:361:677:847:252:272:586:948:1:545:359:141:850:472:77:832:616:12:626:487:246:534:425:613:880:721:48:703:225:889:54:572:986:911:51:788:371:143:333:516:286:738:119:315:704:287:610:955:816:932:63:575:395:430:643:298:752:88:181:552:657:227:239:277:138:358:386:671:248:285:324:907:533:639:329:771:542:79:314:468:943:596:574:27:567:839:687:679:420:676:356:387:134:490:589:651:753:782:68:78:218:429:66:210:500:513:473:569:649:887:977:189:427:431:881:76:172:582:976:509:601:733:778:342:455:691:784:806:120:229:469:633:787:807:859:529:774:783:786:840:52:341:399:591:372:412:625:742:113:585:244:522:255:384:378:396:266:11:173:235:828:982:50:125:215:614:773:59:84:85:129:843:100:233:597:654:926:207:292:295:961:108:307:353:428:492:595:640:866:899:86:103:112:183:197:350:604:754:758:792:930:980:985:169:250:485:505:674:720:870:30:110:115:148:154:257:260:302:729:735:909:925:969:69:97:128:158:510:583:602:628:667:736:756:777:791:883:914:253:267:268:441:470:491:531:615:757:901:132:162:254:406:530:746:25:404:875:40:151:323:521:731:645:696:822:905:230:904:81:693:90:124:349:479:579:330:664:794:896:935:457:261:607:653:236:263:389:741:956:24:517:518:74:318:367:394:824:833:53:91:211:228:240:520:726:759:96:345:444:564:804:453:848:811:548:305:825:442:467:612:642:923:71:355:493:609:106:116:191:284:300:448:598:673:864:967:990:15:61:142:164:166:195:198:280:336:338:368:422:452:476:496:555:560:611:627:695:747:917:937:954:974:3:26:41:47:57:60:137:146:199:204:213:219:262:271:291:320:327:423:451:461:497:544:562:638:688:737:779:802:810:830:835:838:869:884:886:919:928:931:944:968:64:73:95:105:168:193:200:205:279:304:326:331:348:385:403:407:434:456:464:466:478:480:528:537:557:644:646:668:670:697:717:740:775:853:878:900:903:920:941:6:10:20:22:62:70:75:89:99:121:130:133:139:144:217:224:256:258:269:334:377:411:414:415:437:443:460:462:488:532:538:543:549:551:592:593:650:698:725:730:743:749:750:780:781:790:854:856:863:868:876:879:882:908:922:942:952:965:972:983:987:7:18:80:104:122:163:170:190:222:223:241:245:275:282:290:297:321:335:354:362:364:383:393:410:440:454:465:477:600:630:669:689:692:712:719:722:772:776:800:801:812:815:823:829:834:910:936:981:5:14:17:117:135:147:157:159:185:186:192:196:206:214:234:247:274:278:281:299:301:313:344:390:392:413:418:419:459:474:484:507:550:563:594:632:683:690:709:796:799:819:867:877:934:953:962:992:2:4:19:23:29:42:58:72:107:111:145:149:174:182:276:283:289:303:319:365:380:424:439:447:489:494:504:515:541:570:578:606:624:648:662:663:718:751:761:803:809:831:836:846:858:865:894:918:921:929:975:123:161:175:188:212:251:306:347:379:402:486:503:527:553:571:618:714:892:940:945:946:964:979:993:16:28:49:209:237:296:332:369:405:445:501:536:554:587:603:605:672:728:837:902:927:933:966:32:87:156:167:232:483:512:535:599:748:818:851:852:165:259:514:659:732:37:44:94:201:309:433:495:508:519:860:38:328:376:565:39:273:346:511:381:458:608:694:699:924:34:36:216:242:366:566:187:584:675:684:984:92:98:264:340:463:580:793:817:973:150:171:231:238:588:716:857:913:949:958:202:270:475:581:623:641:727:885:951:991:118:322:337:391
tree_sizes=15778 16473 16975 13659 13676 16840 16847 17139 16921 17040 17203 17002 13659 17229 17078 13718 17569 17379 13722 17719 17174 13744 17130 17137 13733 18031 17960 17803 18203 17870 18080 17986 17668 17906 18107 17563 17961 17413 18216 18455 17975 17900 17951 18193 18134 17860 13740 18136 13709 18399 13717 17823 18088 17578 13731 18413 17663 13770 18041 17569 18089 18113 17792 17452 13768 17891 18394 17806 17790 17635 17756 17671 17718 17221 17354 17629 16557 17150 17655 17296 17551 17394 18074 18030 17624 13761 17698 17122 18080 18186 17407 17068 18423 17480 16963 17259 13750 16943 16635 17288 13800 13767

Tree=0
num_leaves=127
num_cat=22
split_feature=0 7 7 7 7 6 7 6 7 1 6 7 6 2 1 2 1 7 7 1 7 2 3 7 2 1 7 6 1 2 2 2 2 3 7 2 7 2 7 2 7 7 1 1 1 2 2 3 3 2 2 6 2 2 7 2 3 1 3 2 2 1 2 3 2 3 2 1 2 2 2 1 3 1 3 2 3 2 2 1 2 2 3 2 2 2 3 7 1 3 3 1 3 2 2 3 3 7 1 2 1 2 2 2 2 2 2 3 3 3 1 2 3 2 2 3 3 7 2 2 2 3 2 7 3 3
split_gain=8035.28 1486.25 1082.44 441.736 411.503 335.426 328.484 220.227 392.649 203.411 183.799 182.499 157.814 173.107 155.472 138.704 116.191 114.373 105.287 86.644 86.3552 85.2122 69.9368 69.8201 69.1972 67.7434 61.1657 59.988 55.315 49.8572 49.765 49.073 45.4798 44.4175 43.2044 43.0037 163.64 42.2322 40.1533 39.771 37.7516 37.4307 37.3156 33.7728 32.3277 29.64 29.1977 29.136 40.7468 27.8132 26.9967 25.0524 23.9506 22.8144 22.8072 22.0139 21.0409 19.9851 18.5074 18.1065 17.2987 16.6254 15.976 15.9329 24.5747 15.7929 14.9032 14.8535 14.6058 14.3503 13.7514 20.0504 13.9213 13.6922 13.5362 13.3834 13.3662 13.24 12.3168 18.997 12.6698 13.12 12.5363 12.0412 11.9905 11.9597 11.9023 11.7914 11.5012 10.89 10.8659 16.9042 10.8482 10.3944 18.9383 10.1735 9.76337 9.58387 9.51977 9.43359 9.37777 9.54255 9.22244 18.3222 8.86852 8.74051 8.02173 12.836 7.76526 10.0322 7.70294 7.62669 7.43313 7.39823 7.3183 7.43076 7.3174 7.29563 7.27612 7.0407 6.87659 6.79421 6.13567 6.01985 5.94642 6.9666
threshold=1.0000000180025095e-35 0 1 2 3 1.0000000180025095e-35 4 1.0000000180025095e-35 5 510.00000000000006 1.0000000180025095e-35 6 1.0000000180025095e-35 0.97961073318216163 210.00000000000003 1.0101120071684588 1.0000000180025095e-35 7 8 450.00000000000006 9 1.0508403954802261 2790.0000000000005 10 1.0588041258169938 750.00000000000011 11 1.0000000180025095e-35 510.00000000000006 1.094998896612601 0.99750886524822713 1.0329378654970764 0.8907870370370371 1950.0000000000002 12 1.0258349780701757 13 1.1302068965517242 14 0.92204673202614396 15 16 630.00000000000011 150.00000000000003 750.00000000000011 1.0924865591397852 1.0659563953488373 1650.0000000000002 1350.0000000000002 1.0625946969696971 0.96194294699011695 1.0000000180025095e-35 0.91734722222222231 0.85386904761904769 17 1.0489934185056138 3330.0000000000005 210.00000000000003 1890.0000000000002 1.1554569892473119 0.94980263157894751 390.00000000000006 1.0860153256704983 2070.0000000000005 1.0690804597701151 2610.0000000000005 1.0038547758284599 450.00000000000006 0.95159090909090926 0.99857738095238113 0.99857738095238113 210.00000000000003 1950.0000000000002 390.00000000000006 2790.0000000000005 0.94434343434343437 3090.0000000000005 0.82347358387799574 0.97717777436527442 390.00000000000006 1.003269230769231 1.0383024691358027 2070.0000000000005 0.96092934782608708 1.0312980769230771 1.1392952196382433 3330.0000000000005 18 390.00000000000006 2370.0000000000005 1770.0000000000002 90.000000000000014 1950.0000000000002 0.98649038461538463 1.0860153256704983 2490.0000000000005 2610.0000000000005 19 570.00000000000011 0.9473911070780402 270.00000000000006 1.1461371703853958 0.82887533274179248 0.89486571618037136 0.9333611111111112 0.99990614035087733 0.96194294699011695 2370.0000000000005 1770.0000000000002 1530.0000000000002 510.00000000000006 1.1071362433862435 3690.0000000000005 0.93745967741935499 0.9982321428571429 990.00000000000011 2070.0000000000005 20 1.0361744359301832 0.94434343434343437 1.0508403954802261 2070.0000000000005 0.90704772475027751 21 2070.0000000000005 1710.0000000000002
decision_type=2 9 9 9 9 2 9 2 9 2 2 9 2 2 2 2 2 9 9 2 9 2 2 9 2 2 9 2 2 2 2 2 2 2 9 2 9 2 9 2 9 9 2 2 2 2 2 2 2 2 2 2 2 2 9 2 2 2 2 2 2 2 2 2 2 2 2 2 2 2 2 2 2 2 2 2 2 2 2 2 2 2 2 2 2 2 2 9 2 2 2 2 2 2 2 2 2 9 2 2 2 2 2 2 2 2 2 2 2 2 2 2 2 2 2 2 2 9 2 2 2 2 2 9 2 2
left_child=2 5 9 27 -4 15 28 11 29 12 16 105 13 33 22 23 30 31 66 21 50 70 -7 102 118 37 85 41 49 47 104 -13 -21 39 -20 40 98 57 -36 -1 -28 86 93 69 46 60 -11 48 75 51 -18 78 -49 -14 -38 65 123 -17 -30 -23 110 -52 90 64 -59 -29 -10 95 74 -42 71 -12 -72 -33 77 -9 -43 -25 82 80 -80 -82 -5 -50 -63 114 99 -45 106 111 -15 -92 -54 -34 -95 108 -53 -71 121 -3 -40 -102 -2 -104 -6 -8 -55 -108 109 -62 -22 -26 -51 -35 -19 -116 -94 -69 -16 -105 -88 -37 -84 -56 125 -73
right_child=1 3 4 6 10 14 7 8 18 44 19 17 53 62 24 25 20 26 34 32 45 59 -24 68 89 -27 35 55 58 -31 -32 73 42 113 38 36 54 -39 100 -41 43 76 -44 87 -46 -47 -48 52 83 112 61 96 92 88 56 -57 -58 63 -60 -61 67 84 -64 -65 -66 -67 -68 117 -70 97 72 124 -74 -75 -76 -77 -78 -79 79 -81 81 -83 122 -85 -86 -87 120 -89 -90 -91 91 -93 116 94 -96 -97 -98 -99 -100 -101 101 -103 103 119 -106 -107 107 -109 -110 -111 -112 -113 -114 -115 115 -117 -118 -119 -120 -121 -122 -123 -124 -125 -126 -127
leaf_value=1.8443096064152811 1.9565094892341648 1.9523172987725501 1.9364085916890765 1.8778838285726605 1.8067926487261026 1.7609385893282179 1.8931473226556021 1.8718272419095474 1.904067493684271 1.8074318121766668 1.7476595857016812 1.9134647169963599 1.5766405429021044 1.706036404497306 1.8732318848524196 1.8813455774674186 1.8279560607558956 1.9555971975236544 1.9027721938819619 1.889547016278498 1.8737107614118562 1.7159807946474419 1.6185894488897299 1.8496966567501374 1.7155254343476205 1.9220775510989219 1.9117029341223504 1.8075797177685329 1.8740176045854449 1.815450408192836 1.6621081684070376 1.8039067289038582 1.7421012460080059 1.6903938825622415 1.9136088524592847 1.8763825779040122 1.9133645263237948 1.7632448585878748 1.936193569788033 1.7516095463306613 1.9381805180683302 1.8230179312822772 1.8348030470008285 1.9234993313235291 1.8611734161591793 1.7952489694371248 1.7033035639004153 1.7956947619299917 1.890445324654676 1.8380648413623051 1.7162602750430995 1.8250502036637219 1.8451513330301024 1.6619555476472072 1.9247867032212851 1.7957700382939188 1.8914462968452743 1.7506605525808572 1.9365964394294422 1.653146277389806 1.8139291481314979 1.8060656612899648 1.6254132653440041 1.8410773762143671 1.8385377667707921 1.8739615036446944 1.871488395627305 1.9155276659511553 1.8157098167161838 1.9076860511170552 1.7763047630792228 1.7932579084744908 1.7203935645632367 1.8714033007464703 1.8242647679600015 1.8070686932308391 1.8698810478782069 1.9073465566687051 1.8559323520007589 1.8348030470008285 1.9378981927411758 1.8850306168204947 1.9032978075819584 1.9305236206325691 1.7415246860262212 1.9082808291417006 1.893448241226471 1.9479467109707906 1.6859563929430914 1.8020009327948288 1.617992736144529 1.6877484560585174 1.8988534910557018 1.8029832345607399 1.7419717789462279 1.8734573966199504 1.8754699956070973 1.9328794854300193 1.9126097088750673 1.9033116312725533 1.9496824916812099 1.9200252351374749 1.8595070190571923 1.9581722612201999 1.7546565059519776 1.8661833497037499 1.6167122492863846 1.6628242485126195 1.8076280465693839 1.8702828848154813 1.9116477356009858 1.7638980258071808 1.8766319084244192 1.7433024126367238 1.9089542104335575 1.9484490289625047 1.865787388796081 1.8666127291605448 1.8242969661526136 1.9174150483124202 1.8481882826563776 1.8476078004978462 1.949832415915703 1.9490662816243685 1.7756639407405335 1.8418793581439172
leaf_weight=22.27564112842083 16.650479227304459 11.362827040255068 64.689361862838268 15.975459799170492 17.325498655438423 14.175407990813254 53.889051012694836 20.813099034130573 80.552318423986435 16.76298246532679 22.950660556554794 151.76686809211969 14.400414466857908 18.113021321594715 20.588092558085918 14.850427418947218 14.175407990813254 967.64035023003817 90.79011308401823 13.162878848612307 47.926379397511482 27.450790077447891 22.050634652376175 18.563034273684025 12.60036265850067 14.962930656969545 115.87833516299725 13.612891800701616 15.300440371036528 43.313746638596058 11.70033675432205 12.375356182456018 20.813099034130573 14.175407990813257 142.65410581231117 80.214808709919453 91.127622798085213 35.101010262966156 230.18162499368191 24.075692936778069 903.51350455731153 35.438519977033138 34.425990834832191 95.290242604911327 12.937872372567652 17.325498655438423 11.250323802232741 13.837898276746271 33.300958454608917 60.414238817989826 21.263111986219883 21.713124938309193 43.20124340057373 25.200725317001343 78.977273091673851 32.400932550430298 18.225524559617043 16.987988941371444 51.863992728292942 19.688066653907299 14.512917704880239 14.737924180924894 23.963189698755741 33.750971406698227 14.962930656969545 26.21325445920229 62.214290626347065 12.487859420478342 20.025576367974281 77.739737473428249 22.725654080510139 14.512917704880239 21.82562817633152 19.125550463795662 14.512917704880236 12.937872372567652 26.663267411291599 21.488118462264538 16.425472751259804 17.212995417416096 19.913073129951954 28.575822457671165 11.250323802232744 42.863733686506748 14.062904752790926 14.850427418947218 20.813099034130573 1766.9758563786745 13.950401514768599 11.925343230366705 14.962930656969545 20.700595796108246 24.750712364912033 39.376133307814598 18.78804074972868 15.750453323125837 17.212995417416096 73.464614428579807 14.175407990813254 72.339582048356533 533.60285793989897 28.575822457671165 12.262852944433687 13.612891800701616 15.412943609058855 67.951955765485764 54.901580154895782 20.813099034130573 25.650738269090652 17.325498655438423 18.563034273684025 23.063163794577122 15.750453323125837 12.375356182456015 12.375356182456015 316.35910531878471 51.638986252248287 51.413979776203632 12.037846468389032 47.813876159489155 14.062904752790926 27.563293315470219 19.125550463795662 389.59871327131987 11.587833516299723 14.962930656969545
leaf_count=198 148 101 575 142 154 126 479 185 716 149 204 1349 128 161 183 132 126 8601 807 117 426 244 196 165 112 133 1030 121 136 385 104 110 185 126 1268 713 810 312 2046 214 8031 315 306 847 115 154 100 123 296 537 189 193 384 224 702 288 162 151 461 175 129 131 213 300 133 233 553 111 178 691 202 129 194 170 129 115 237 191 146 153 177 254 100 381 125 132 185 15706 124 106 133 184 220 350 167 140 153 653 126 643 4743 254 109 121 137 604 488 185 228 154 165 205 140 110 110 2812 459 457 107 425 125 245 170 3463 103 133
internal_value=1.90819 1.92532 1.77458 1.9305 1.81525 1.83394 1.93283 1.93514 1.91793 1.69826 1.80219 1.93987 1.67649 1.71127 1.76026 1.86046 1.82582 1.94125 1.93075 1.77085 1.83754 1.74587 1.67429 1.89094 1.79909 1.82197 1.94268 1.86653 1.88298 1.86633 1.75062 1.90201 1.80157 1.76662 1.93639 1.9391 1.92801 1.80902 1.93967 1.79616 1.94176 1.88028 1.79136 1.94282 1.7958 1.8602 1.76561 1.87367 1.89274 1.87109 1.78604 1.88249 1.85797 1.63597 1.93886 1.82637 1.94343 1.82896 1.92234 1.68974 1.86337 1.74979 1.65937 1.81712 1.79181 1.85127 1.89106 1.85323 1.85884 1.93579 1.77024 1.78509 1.74891 1.84489 1.86564 1.847 1.85215 1.88063 1.89313 1.8815 1.89389 1.90674 1.91374 1.913 1.77455 1.95256 1.90039 1.94699 1.6434 1.76064 1.6745 1.65848 1.86518 1.77242 1.78328 1.83786 1.84735 1.92154 1.87667 1.90996 1.94424 1.94817 1.92143 1.91531 1.78225 1.88038 1.63752 1.62939 1.8281 1.8446 1.8843 1.74681 1.84604 1.71505 1.95341 1.94696 1.8765 1.87084 1.85518 1.92645 1.8752 1.86902 1.9326 1.9462 1.80601 1.81794
internal_weight=8777.39 7779.94 997.454 7367.95 676.594 411.987 7115.04 6804.31 1455.23 320.859 611.905 5349.08 279.908 150.642 116.441 295.546 329.634 5227.24 1168.57 282.271 285.196 155.704 36.226 164.93 80.2148 130.616 5043.97 252.907 310.734 286.658 44.4388 183.268 126.566 72.9021 1025.8 3732.74 699.883 115.653 935.014 46.3513 3032.86 180.68 113.403 2916.98 40.9512 220.956 28.0133 243.345 109.916 243.57 64.2393 167.405 133.429 129.266 577.929 72.2271 486.802 80.5523 67.1644 47.1389 203.631 50.0639 77.7397 65.7019 31.9509 39.8261 142.767 137.141 74.5896 1054.72 108.566 64.0143 44.5513 31.5009 54.5641 33.751 62.1018 40.0512 128.479 82.1274 64.9144 48.4889 46.3513 76.1647 28.8008 1311.23 118.578 1862.27 114.866 47.5889 53.7765 35.6635 119.591 78.9773 58.1642 73.2396 38.9261 151.204 121.954 83.7024 792.36 562.179 90.3401 73.6896 32.7384 121.841 100.915 75.7147 57.4892 31.8384 66.4894 35.6635 76.1647 26.5508 1296.37 328.734 76.3897 63.9018 32.6259 61.4268 34.876 107.778 30.3759 468.576 41.0637 29.4758
internal_count=78019 69153 8866 65491 6014 3662 63243 60481 12935 2852 5439 47546 2488 1339 1035 2627 2930 46463 10387 2509 2535 1384 322 1466 713 1161 44834 2248 2762 2548 395 1629 1125 648 9118 33179 6221 1028 8311 412 26958 1606 1008 25928 364 1964 249 2163 977 2165 571 1488 1186 1149 5137 642 4327 716 597 419 1810 445 691 584 284 354 1269 1219 663 9375 965 569 396 280 485 300 552 356 1142 730 577 431 412 677 256 11655 1054 16553 1021 423 478 317 1063 702 517 651 346 1344 1084 744 7043 4997 803 655 291 1083 897 673 511 283 591 317 677 236 11523 2922 679 568 290 546 310 958 270 4165 365 262
cat_boundaries=0 31 61 92 121 152 183 214 244 275 306 335 363 390 421 452 482 512 543 574 605 628 656
cat_threshold=1753286656 16809984 0 0 0 279552 0 0 0 1186992128 10240 65536 256 0 0 0 0 0 0 0 24576 131072 0 0 67108896 0 2 33554432 1048580 0 64 0 0 0 0 33554432 393216 2048 524288 512 549453824 0 0 131072 1048578 0 0 16384 0 2 0 0 3221225472 0 0 1073741828 134234112 1074003968 33554432 1048580 2151712768 16781312 0 0 16 147456 0 278528 0 128 134742016 8 0 0 0 0 2097424 0 65728 0 0 1024 1073741824 0 0 4194304 512 0 1064960 134217728 269516928 16 0 2147483648 147476 16777216 0 8388608 0 0 0 0 8945664 524289 8192 134218240 0 71303172 2151677952 16 512 131072 0 0 196640 1024 0 64 0 1 33554432 0 67108880 8192 8 1 2048 137363458 1024 536870912 0 0 0 2097152 0 134217728 0 33555456 2 0 1073741824 268435456 0 4194304 8192 0 2147483656 32 0 0 2152202256 67112960 0 0 1048576 2 35651584 268566528 536872960 1572864 16 1024 0 512 0 1048576 0 524288 0 8 0 268435457 2048 98304 0 640 0 134234112 1074003968 128 0 2048 1 1048576 0 0 0 0 512 2147483648 0 134217728 32768 0 1048576 0 4096 2048 1048576 294912 0 537395200 1049616 7 2147483648 0 0 2155888648 8912896 0 4096 0 134365184 33554434 655360 0 8388864 0 4194304 0 0 2214593024 8388672 0 4097 0 0 8388608 0 134217728 0 0 8390656 33554432 256 2 0 2099200 0 134512640 20971520 268435456 2112 512 24 129 0 0 0 2097152 1073741824 16809984 65536 0 0 0 2147614720 16779264 67108866 64 16384 0 0 4194304 0 32 262144 0 1073742336 1 270532608 64 1073742080 4096 524800 4608 16793600 532480 0 0 513 0 272629760 0 0 8448 0 0 16416 0 0 0 0 0 0 0 16384 0 0 0 65536 1 32896 134252544 524304 1 0 16777216 0 0 0 0 0 0 0 12582912 0 0 0 0 0 0 0 0 0 0 0 0 0 0 0 0 0 0 4 514 4210688 0 0 0 0 0 0 512 64 8912896 705 8192 0 16777218 71827460 16 32768 0 268714240 67108864 0 131072 0 4 16384 1073750016 65536 0 33558528 32768 16384 0 12583424 8 2097152 1074003968 262144 0 0 4194304 512 303562760 32896 268435456 0 0 1179648 64 33554432 256 2 0 0 128 301989888 0 4 64 1024 1 536870912 537427968 0 0 512 0 131072 32784 0 0 514 268435456 2 0 0 32 0 8388608 0 65536 129 1028 0 0 1 4 0 136315968 2097216 268435456 2147516416 0 8388608 512 536870912 0 268435456 0 2 0 1073741824 8388608 10240 0 0 0 0 0 65536 1048584 18 256 9216 536870912 0 134217728 0 2147483648 268500992 8388608 512 0 0 128 0 530 134217728 0 8388608 2240 33554432 128 65536 48 2097152 0 0 32896 0 32 32768 268435456 2052 0 16777728 8192 0 0 0 0 0 0 262144 0 128 524288 0 0 0 0 0 0 0 0 0 0 0 1073741824 0 0 0 0 0 0 0 269516800 0 0 32768 536870912 570425344 67117056 0 2 65536 131088 131072 0 0 0 0 1073741824 0 0 8192 2147483648 8 16384 1048576 0 66576 16 2147483648 32768 163840 65536 1073758208 0 0 0 4 67108864 0 0 131072 67141632 0 536870912 16793600 524288 256 16 0 0 33554432 16777220 32772 512 4194305 2097152 0 65792 128 134217744 8 0 64 2097156 0 0 0 0 0 0 536870912 524288 0 0 0 0 131072 0 0 0 0 0 0 0 131072 16384 0 512 1073741824 0 0 1024 0 0 2048 0 0 65536 0 0 0 0 8 0 64 0 0 16777216 0 2 0 0 0 0 0 0 0 1048576 0 0 67633664 2147549184 8388608 134217728 67108896 0 32 65536 0 0 1024 0 0 0 1342177312 2147483648 2147483648 0 2147486208 524288 0 131072 0 131072 32768 128
is_linear=0
shrinkage=1


Tree=1
num_leaves=127
num_cat=22
split_feature=0 7 7 2 7 7 7 7 7 7 7 1 1 2 3 3 1 2 7 7 4 2 2 2 7 1 2 7 7 3 7 7 4 4 4 1 7 2 2 4 4 7 2 2 4 3 2 7 1 2 4 7 3 4 1 4 1 4 4 4 3 4 3 2 4 2 4 2 3 4 4 7 3 3 2 4 2 1 2 4 3 4 2 4 2 2 7 4 3 3 3 3 4 2 4 2 1 4 4 1 1 2 2 2 2 1 4 2 4 2 2 3 4 4 4 4 2 4 1 4 2 4 3 2 2 4
split_gain=6673.3 1194.49 756.121 445.29 404.292 303.737 285.529 186.816 146.717 129.29 128.153 118.25 101.944 97.8489 110.786 186.58 91.6482 105.914 76.1213 73.8166 67.3217 52.6838 52.9343 47.6885 55.3551 46.712 49.234 42.8616 42.0647 46.8605 40.6067 49.5697 38.7744 33.6711 32.5031 31.9576 31.9246 31.2668 31.1643 30.5332 30.2557 26.1286 21.9724 30.3608 21.5379 21.125 19.8496 63.2628 19.7056 17.8536 17.5454 21.4064 25.5206 17.3672 17.0482 25.4467 17.0001 16.7097 18.3902 16.7004 16.2729 16.0172 15.7099 20.4398 15.3577 25.1419 15.1714 14.8271 14.5862 14.1464 14.0978 14.0528 13.941 16.2305 13.7616 13.7466 13.3097 13.2408 12.9332 12.4871 12.2648 12.2117 12.1481 11.6583 13.9179 10.8453 11.3945 10.6157 10.5984 11.5335 10.8195 10.5312 10.2729 10.2555 9.99718 9.63928 11.1243 9.4999 13.8075 9.64626 9.16447 9.09884 8.96225 9.12377 8.77956 11.3593 8.68037 10.6322 18.9233 8.6738 8.34729 9.55208 8.03323 8.33893 34.4897 9.55249 9.79365 9.46233 8.86877 9.5563 7.45149 7.14875 24.4658 7.08607 7.03042 6.93604
threshold=1.0000000180025095e-35 0 1 1.0297066822066823 2 3 4 5 6 7 8 510.00000000000006 1.0000000180025095e-35 1.0588041258169938 2850.0000000000005 3030.0000000000005 1.0000000180025095e-35 0.95875820344544727 9 10 239.87500000000003 0.96923137626262623 0.85386904761904769 1.2483670977011496 11 570.00000000000011 1.1554569892473119 12 13 990.00000000000011 14 15 176.87500000000003 177.87500000000003 121.12500000000001 570.00000000000011 16 1.0525794723294726 1.0405305958132047 416.25000000000006 360.75000000000006 17 0.67200694444444453 1.0027329749103944 301.75000000000006 1470.0000000000002 0.96367216117216115 18 270.00000000000006 1.0752743902439026 126.12500000000001 19 1410.0000000000002 194.62500000000003 150.00000000000003 172.62500000000003 570.00000000000011 419.12500000000006 474.12500000000006 300.62500000000006 3210.0000000000005 177.87500000000003 2670.0000000000005 0.95159090909090926 378.37500000000006 0.93961632453567945 175.87500000000003 1.1146397243107773 3570.0000000000005 179.12500000000003 367.00000000000006 20 1590.0000000000002 3390.0000000000005 0.93227272727272747 231.87500000000003 0.98408329133064532 750.00000000000011 1.0170032051282052 300.62500000000006 3150.0000000000005 448.87500000000006 0.99990614035087733 249.50000000000003 1.0489934185056138 1.1392952196382433 21 123.62500000000001 3510.0000000000005 1290.0000000000002 1470.0000000000002 2610.0000000000005 299.12500000000006 0.93227272727272747 297.62500000000006 0.9026388888888891 630.00000000000011 265.87500000000006 298.87500000000006 390.00000000000006 510.00000000000006 0.61132222222222232 0.97503676470588241 0.946443812233286 1.1554569892473119 270.00000000000006 339.87500000000006 0.9566935907538745 238.12500000000003 1.1106367418142782 0.96820202020202017 1650.0000000000002 317.87500000000006 182.62500000000003 178.87500000000003 220.37500000000003 1.0609257392473121 174.87500000000003 330.00000000000006 265.87500000000006 1.044725378787879 360.75000000000006 3090.0000000000005 0.95875820344544727 0.85386904761904769 123.12500000000001
decision_type=2 9 9 2 9 9 9 9 9 9 9 2 2 2 2 2 2 2 9 9 2 2 2 2 9 2 2 9 9 2 9 9 2 2 2 2 9 2 2 2 2 9 2 2 2 2 2 9 2 2 2 9 2 2 2 2 2 2 2 2 2 2 2 2 2 2 2 2 2 2 2 9 2 2 2 2 2 2 2 2 2 2 2 2 2 2 9 2 2 2 2 2 2 2 2 2 2 2 2 2 2 2 2 2 2 2 2 2 2 2 2 2 2 2 2 2 2 2 2 2 2 2 2 2 2 2
left_child=2 13 11 6 23 -4 68 39 78 92 35 21 28 14 27 124 20 34 97 -14 45 22 -1 24 38 26 70 61 29 82 -21 101 93 -30 -18 -9 -20 56 -5 48 -13 87 -29 62 -15 -11 71 121 -6 79 -31 52 -52 66 -36 -56 60 -53 -59 75 91 -2 63 -44 65 -34 -54 76 -3 -35 88 -33 -72 81 -47 -45 -23 104 106 -39 -37 -74 -10 84 -50 -43 -87 -38 89 -19 -91 -26 102 -24 -70 -57 -97 99 -99 -12 -46 -32 103 -7 105 -40 107 -8 -109 -51 -65 -112 113 114 117 -115 118 -92 -117 -120 -100 122 125 -108 -16 -48
right_child=1 3 5 4 7 9 8 10 12 16 18 40 19 44 15 -17 17 25 36 30 -22 67 32 -25 37 -27 -28 42 33 50 31 46 64 69 54 80 41 49 77 -41 -42 85 43 59 100 74 47 -49 83 109 51 57 53 -55 55 95 -58 58 -60 -61 -62 -63 -64 110 -66 -67 -68 -69 94 -71 72 -73 73 -75 -76 -77 -78 -79 -80 -81 -82 -83 -84 -85 -86 86 -88 -89 -90 90 112 -93 -94 -95 -96 96 -98 98 120 -101 -102 -103 -104 -105 -106 -107 123 108 -110 -111 111 -113 -114 115 -116 116 -118 -119 119 -121 -122 -123 -124 -125 -126 -127
leaf_value=-0.23799841216704257 0.042480134696789074 -0.055473766448949538 0.026626992909411736 0.033435907659040309 -0.00099166673425799966 -0.0019164717307809257 0.013026074239037445 -0.034631606933801982 -0.026008733141312884 -0.17977161089710694 0.025416021626249202 -0.038897313729687244 -0.0057517999711962191 -0.082739293909738401 -0.22900866702593242 -0.011599841501421069 -0.0026832908775993101 -0.14673149409523342 -0.0032583051628358953 0.0030023857554323588 -0.24245473271707163 -0.25417089332318055 -0.088719477936014396 -0.11949721430966437 -0.062463660376336827 -0.076723053166806249 -0.16822005891217995 -0.11832581351231536 0.034226031578888899 0.024659322303267971 -0.027217136183642455 0.015929817960527413 -0.12722583779395269 -0.01466563193467655 -0.1083074442808615 0.036368562341240071 -0.034215238178866597 -0.15607092981379467 0.0079063028591073916 -0.080061637838527017 -0.1357273760533452 0.03992149426498124 0.0072376122943405207 -0.075775016130188069 -0.15132680452101421 -0.07654439359746866 -0.021298981083604816 0.037467571474954268 0.013352996633737766 -0.057210837104271862 0.026370541892765734 0.021409129973700574 -0.055955230415369817 -0.080777150352388666 -0.0059406722033820752 -0.049464358236469858 0.0071212663567775227 -0.054953863438771969 0.01148516530130532 -0.046380458570029884 -0.085258456515507952 -0.017039524886713387 -0.067925060367842974 -0.069282871776889993 -0.22312816072502858 -0.20968667515699138 -0.0013833448640133547 -0.24558744460456639 0.018153877838722767 0.01834413211380255 -0.090624273695750657 0.042943285518983118 -0.20502622564688316 -0.10582044503467217 -0.13154371289328823 -0.13838157569711212 -0.20282493919261363 0.016825004744222917 -0.060263617579543127 -0.09234221694345153 -0.021711935693043263 -0.13750015683439773 -0.087876826744809844 -0.069390421746203731 -0.049035581409883476 -0.0092178816780540528 0.029758621032713733 0.015078435532522022 -0.14876584359324543 -0.05412632493860961 -0.095038190875186362 -0.01034708794037436 -0.057161012756179443 -0.14202990757864761 -0.042714504640041354 -0.093271216099067425 -0.03950175076275695 -0.074774206570271382 0.011370560651995293 -0.020356600008274717 -0.109566946527202 0.012582568724031721 0.01573561711482015 -0.055398586989965838 -0.076041658492999153 -0.037983506035309519 -0.062010621654452869 -0.036507339099900109 0.0069730409358113241 -0.096331034515620972 -0.062321175134039647 -0.0086331080112115322 -0.071340588255692824 -0.14454820104939534 -0.037752219529056233 -0.12449887266048963 -0.13448137272370944 -0.1544966125281278 -0.071362039935689056 -0.11493296103923099 -0.027891413936783627 0.026876445424084051 -0.061211243995478032 -0.015857435203100338 -0.1808458268051335 0.011827919623387431
leaf_weight=23.354396671056747 16.910678908228874 103.81302556395531 57.631074488162994 23.065742447972298 39.370418041944504 17.636884614825249 58.63144788146019 132.16095140576363 22.147694960236549 16.348226092755795 23.581178978085518 12.86672519892454 111.44853989034891 28.017164967954159 14.374636277556421 21.667817637324333 20.64233174175024 13.656439587473868 73.532211154699326 101.7682199254632 16.41870803385973 14.028865873813627 19.324455589056015 23.616956755518913 18.304173812270164 86.070286624133587 42.654984936118126 13.030751422047613 565.76024567335844 177.69928945600986 15.947745554149149 91.06882081925869 20.962332248687744 35.418318495154381 23.950517028570175 26.290022403001785 11.994757197797297 13.079396747052671 16.062418691813946 40.583462826907635 21.627321466803551 582.07820559293032 30.851781785488129 21.615681417286396 36.460104189813137 16.318111553788185 20.366844542324543 1288.7560255154967 13.571833118796347 36.911367751657963 27.475337609648705 169.95632237195969 18.515492632985115 13.754390046000479 17.233618952333927 31.697788082063198 12.906183235347269 16.458358578383923 28.367572695016861 22.521173320710659 27.231475010514259 34.088732041418552 28.984386533498764 20.082434237003326 15.229108825325964 16.534929320216179 40.799818433821201 32.251309588551521 12.659334667026998 388.11547964811325 14.424419932067392 1923.689261816442 13.257294341921808 14.898778125643728 37.534558996558189 14.751529201865194 125.76746292412281 13.583557412028311 13.152194142341612 18.642406731843948 13.89284387975931 13.52675002068281 12.363747999072073 29.095798626542091 26.18941505998373 24.826581992208958 61.766342721879482 122.12854225188494 13.018500357866285 12.462696172296999 13.371323145926 20.604504026472569 14.30918078124523 16.920494958758354 14.441020160913466 51.5416324660182 11.826388612389563 12.08937496691942 17.363634891808033 22.486131273210049 20.539014525711536 144.27498975396156 21.256464526057243 14.555578678846357 11.904071934521196 84.049852602183819 12.104305952787398 47.864944629371166 52.438078418374062 22.99731183052063 13.307658843696116 21.949991166591644 18.88353206962347 19.691127642989159 19.801037549972534 22.124897763133049 23.818752281367779 13.393956720829008 35.098339110612869 19.6188575476408 39.750254407525063 19.734151042997837 16.841087378561497 26.576456867158413 16.022718414664268 70.487346105277538
leaf_count=174 153 898 520 208 350 154 524 1146 195 129 214 106 989 231 106 189 176 112 649 912 127 105 153 193 158 722 326 108 5141 1599 142 827 165 318 191 237 106 110 139 344 175 5299 273 176 294 134 184 11768 119 313 247 1530 164 123 147 272 114 146 255 190 230 294 244 174 116 124 362 235 110 3510 117 17624 103 119 292 122 934 122 115 159 123 110 107 250 223 218 559 1105 104 103 110 180 119 132 125 432 102 106 154 199 167 1300 178 123 97 721 104 422 462 193 113 195 154 158 164 178 190 110 289 160 346 178 148 234 121 639
internal_value=-0.000116945 0.0163364 -0.115455 0.0208087 -0.00197172 -0.0850511 0.027506 0.0107388 0.0292151 -0.0942194 0.0175604 -0.181347 0.0308546 -0.0696062 -0.0576398 -0.123708 -0.101849 -0.096086 0.0244982 0.0352825 -0.151308 -0.197639 -0.171004 -0.0494939 -0.0458667 -0.109462 -0.118167 -0.0431923 0.0199523 0.00800021 0.0364377 0.0373743 -0.153418 0.0259823 -0.0611516 -0.0215113 0.0295726 -0.0646249 -0.0187246 -0.0403636 -0.0996085 0.0325829 -0.0528748 -0.0510126 -0.118635 -0.12999 0.0387131 0.0342898 -0.029207 -0.0882881 0.0120946 0.00501382 -0.013379 -0.0301564 -0.0700097 -0.0618418 -0.0453702 0.0136131 -0.0129087 -0.0802163 -0.0556131 0.00225432 -0.0360811 -0.0253727 -0.180785 -0.163588 -0.0184182 -0.215028 -0.0436149 0.0155837 -0.11057 0.0420145 -0.132992 -0.147654 -0.114878 -0.10117 -0.207978 -0.0297944 -0.0116986 -0.118619 0.0162878 -0.170924 -0.048173 -0.0453397 -0.0277403 0.0369134 0.020956 0.00992972 -0.104977 -0.102287 -0.0992256 -0.0348648 -0.0170221 -0.113607 -0.0142812 -0.0719757 -0.0832362 -0.0133601 -0.0262304 0.00307373 -0.136279 0.00811465 -0.00946091 -0.026098 -0.0354477 -0.0306208 -0.00905832 -0.00388859 -0.0137759 -0.072228 -0.0435528 -0.0288971 -0.102251 -0.105748 -0.0877811 -0.112699 -0.106469 -0.124793 -0.0977858 -0.0869844 -0.0159551 -0.000731681 -0.00585855 -0.0303001 -0.203622 0.00440184
internal_weight=8791.32 7693.78 1097.54 7318.61 1655.71 778.673 5662.9 1312.75 5531.98 721.042 1163.94 318.867 5321.22 375.176 290.16 52.0652 653.284 566.664 991.597 3804.38 86.6196 284.373 112.326 342.959 319.342 409.772 323.702 238.095 1516.83 527.538 3692.93 3591.17 88.9713 989.294 156.892 172.344 876.327 170.677 148.666 148.811 34.494 802.794 187.095 174.065 85.0163 70.2009 3430.94 1416.19 108.227 91.6305 493.027 315.327 100.545 73.0697 136.25 112.299 79.0463 214.782 44.8259 58.8884 66.1402 50.9994 115.176 86.1919 52.7264 37.4973 59.3153 172.048 130.913 423.534 281.047 2014.76 56.1072 41.6828 53.8527 36.3672 139.796 125.6 210.767 31.7218 40.1829 26.784 34.5114 68.857 39.7612 668.671 86.5929 134.123 224.939 211.921 198.265 38.9087 67.7581 36.245 27.1004 95.0658 63.368 115.271 69.2033 46.0673 56.9991 160.223 53.4489 32.1925 112.016 100.112 197.615 158.934 100.303 59.9087 55.3401 35.2577 185.802 166.918 46.5663 120.352 100.661 26.7653 76.8421 54.7172 57.1139 127.429 107.695 38.6808 30.3974 90.8542
internal_count=78080 69236 8844 66086 14684 6425 51402 11747 50269 5905 10461 2419 48408 3150 2458 416 5331 4649 8955 34711 682 2138 864 2937 2744 3329 2607 2042 13697 4728 33722 32810 690 8969 1320 1506 7936 1457 1287 1286 281 7287 1595 1487 692 555 31368 12917 942 775 4426 2827 896 649 1144 953 682 1931 401 488 568 447 999 755 405 289 526 1274 1133 3828 2281 18451 449 332 426 298 1039 1079 1861 269 360 213 302 592 342 6076 777 1211 1832 1728 1616 338 574 285 235 806 534 1019 606 413 461 1442 455 277 957 860 1746 1408 884 506 482 308 1513 1359 384 975 817 220 627 449 500 1149 971 338 227 823
cat_boundaries=0 31 62 93 123 154 185 216 246 276 307 337 367 396 423 454 485 515 546 577 603 634 660
cat_threshold=1207961600 16809984 0 16 131072 278528 262144 0 0 1183318016 10240 65536 256 0 0 0 0 0 0 0 24576 131072 0 0 67108864 0 2 33554432 135266308 0 64 0 0 0 0 0 393216 2048 524288 0 545259520 0 0 131072 1048578 0 0 16384 0 0 0 0 3221225472 0 0 1073741828 134234112 262144 33554432 1048580 2151712768 2048 545325056 16 8192 8 16384 0 536870912 524288 128 4194304 0 0 0 0 2048 524288 0 268435458 2 0 1024 1073741824 0 0 1073741864 134217728 0 1024 6144 2421686272 1 0 2147483648 213012 16777216 0 0 0 0 1073741824 0 8388608 524289 2048 134218240 0 4194308 2151677952 16 512 0 0 0 131104 1024 0 64 64 1 0 1 17305600 67108864 0 0 1 3072 1073741824 0 0 32768 0 1048576 2147483776 0 0 16 33554432 65600 0 1024 0 33554432 4456704 128 12582912 0 0 1048576 0 1212544 67108864 8 1 0 66 33554432 268435456 1064960 32768 66048 0 8 0 2097152 1048576 134217728 2097408 0 128 0 1073741824 0 32800 0 8192 0 8388608 262144 16512 1073741824 134217728 4624 1048576 134217728 65536 0 0 4194304 2097160 67109888 545259520 134217728 1 0 0 16777216 67108864 1048704 0 0 0 33554448 134217728 1073741824 16384 0 2147500032 32768 16779296 0 0 16 524290 0 134217728 32768 8388608 0 1 67174400 34 2162696 134217728 524288 512 20971524 2048 0 0 1073741824 32768 1024 34603008 0 0 65536 4 16 0 512 65536 16384 4 268435472 0 0 0 0 1 134217730 2685403648 16 134221824 512 0 131072 4096 33554432 0 514 0 536870912 0 2049 2147549184 0 0 0 2147549704 1 4096 256 2048 33554432 128 0 0 0 8388608 0 0 0 536871040 0 0 0 2048 0 134217728 1024 8192 524288 272629760 268435522 0 0 2 65552 524289 270565376 64 0 20480 1073741824 0 0 1048832 4 67108864 2097152 2147483648 131200 0 262160 134221832 0 524288 64 524288 0 65536 2 0 1048576 1 0 0 2099200 8 262162 132 0 0 512 0 0 8192 0 0 0 0 0 128 4194304 0 0 0 0 0 524288 0 268435456 0 0 1024 0 0 0 0 0 0 0 0 4194304 2048 0 0 0 0 262144 0 0 0 1074266112 0 0 0 0 0 0 0 0 0 0 0 0 0 0 0 0 0 0 4 0 131072 0 0 0 131072 131072 262144 131072 0 0 67109376 131072 1048576 0 0 16448 8 0 0 131072 0 0 512 0 134217728 327680 131072 0 0 0 268435456 2147483648 0 8192 201326600 2 536870912 0 0 4 33554432 1073741824 8389632 2048 10487808 0 0 32898 2097152 32 0 0 4194304 128 16777729 0 134217728 16384 36700160 134225921 0 0 8388608 32768 0 32768 0 0 16777216 0 2176 8 0 1074036736 1024 2147483652 4 0 0 32768 0 65536 128 1207959552 8192 64 8192 10485764 4096 4096 134218756 2097152 14681088 32768 32768 0 0 131072 1024 0 0 8421376 0 32832 0 0 0 131073 0 0 4194304 8519680 512 0 128 268435456 0 65552 0 16384 16809984 17408 536870912 134218240 96 2 2147483744 65544 128 0 1024 0 0 2147483648 1073741824 2147483648 2147483648 0 516 16384 0 512 128 16777216 0 4 32768 0 16384 0 256 268435456 8388608 32768 0 0 1114112 2149580800 0 524288 16384 4 544 2097280 4 524288 33554432 0 262144 0 16384 33554432 4 1024 0 0 0 0 4194304 1048576 0 0 0 0 0 0 0 0 0 0 0 0 0 0 0 0 0 8 0 0 0 0 0 512 0 134217728 33554432 0 0 1 1073741824 536870912 0 16777216 0 3072 33280 0 134217728 134217728 4096 1032 0 33554464 83886080 0 0 4194304 33554432 65536 33024 268435456 0 8388608 8448 0 32 0 0 0 0 0 131072 0 0 0 0 0 0 0 514 2 0 0 0 0 0 0 0 0 0 4 16384
is_linear=0
shrinkage=0.05


Tree=2
num_leaves=127
num_cat=27
split_feature=7 6 7 7 6 7 7 7 7 7 1 7 7 1 7 4 1 7 7 7 4 7 1 7 4 1 4 1 7 4 7 7 7 4 3 3 3 1 4 4 4 4 3 3 1 1 3 1 3 4 3 3 3 3 3 7 7 7 4 5 7 7 4 4 4 3 4 3 7 1 4 3 3 4 4 3 3 3 4 3 1 4 4 4 3 4 3 3 4 4 4 4 7 4 4 4 4 1 4 3 3 4 4 3 1 1 1 3 4 3 4 1 4 4 4 4 1 4 1 4 3 1 3 4 5 1
split_gain=1919.18 1060.4 769.963 511.558 490.233 245.269 206.158 170.179 140.539 117.985 85.0545 84.8581 83.1592 66.4143 77.6631 60.0635 59.9305 59.4995 58.4889 55.6802 52.2501 47.0753 46.7454 46.5168 41.6776 37.3122 36.4478 35.9167 41.4186 32.6912 31.6199 31.2685 30.4103 29.7152 28.8125 28.4234 37.265 34.7169 31.4474 28.2576 27.8311 27.5014 27.123 27.0194 26.4583 26.2465 23.5065 20.5799 20.1997 18.7818 30.7016 17.7441 17.4835 50.9872 18.0562 16.5505 20.5617 15.8349 15.7958 15.6481 19.2648 16.7532 15.3268 18.0695 15.0092 14.7767 14.5033 12.7422 12.7382 12.5706 12.4177 11.6356 19.665 11.4374 32.1075 11.5266 11.1369 12.5324 11.0129 10.5828 10.4445 20.5785 10.1443 11.9998 9.87735 9.71123 9.62801 9.45518 23.1374 10.9792 8.95774 11.1624 8.94097 13.3587 10.5353 10.057 8.81519 8.68983 8.43664 8.2032 8.10252 7.91513 9.46122 10.5556 7.80654 7.69897 10.1759 7.55308 7.37306 8.39204 7.22446 7.10935 6.86794 7.55886 7.84275 6.85927 6.77384 6.75661 6.67387 6.47446 6.75185 7.31389 8.41255 7.5891 6.45093 6.30587
threshold=0 1.0000000180025095e-35 1 2 1.0000000180025095e-35 3 4 5 6 7 450.00000000000006 8 9 270.00000000000006 10 299.12500000000006 690.00000000000011 11 12 13 416.25000000000006 14 390.00000000000006 15 656.50000000000011 570.00000000000011 122.62500000000001 750.00000000000011 16 477.12500000000006 17 18 19 480.87500000000006 1410.0000000000002 2250.0000000000005 1890.0000000000002 450.00000000000006 360.12500000000006 177.12500000000003 175.87500000000003 390.75000000000006 1110.0000000000002 1590.0000000000002 330.00000000000006 90.000000000000014 2730.0000000000005 510.00000000000006 1650.0000000000002 286.62500000000006 2370.0000000000005 3090.0000000000005 1410.0000000000002 1650.0000000000002 1710.0000000000002 20 21 22 176.62500000000003 1.0000000180025095e-35 23 24 240.62500000000003 424.75000000000006 355.62500000000006 1650.0000000000002 424.75000000000006 1650.0000000000002 25 270.00000000000006 192.75000000000003 1770.0000000000002 2970.0000000000005 359.12500000000006 325.87500000000006 2670.0000000000005 1170.0000000000002 1050.0000000000002 298.87500000000006 1710.0000000000002 570.00000000000011 297.62500000000006 240.12500000000003 222.62500000000003 1770.0000000000002 199.00000000000003 1530.0000000000002 2070.0000000000005 231.87500000000003 299.12500000000006 119.62500000000001 302.12500000000006 26 184.62500000000003 237.12500000000003 307.00000000000006 300.62500000000006 450.00000000000006 177.87500000000003 1530.0000000000002 3330.0000000000005 388.00000000000006 184.12500000000003 2070.0000000000005 270.00000000000006 690.00000000000011 330.00000000000006 1950.0000000000002 177.87500000000003 2670.0000000000005 178.87500000000003 330.00000000000006 472.50000000000006 378.37500000000006 422.37500000000006 418.12500000000006 270.00000000000006 126.12500000000001 570.00000000000011 121.62500000000001 2250.0000000000005 210.00000000000003 1590.0000000000002 285.37500000000006 1.0000000180025095e-35 570.00000000000011
decision_type=9 2 9 9 2 9 9 9 9 9 2 9 9 2 9 2 2 9 9 9 2 9 2 9 2 2 2 2 9 2 9 9 9 2 2 2 2 2 2 2 2 2 2 2 2 2 2 2 2 2 2 2 2 2 2 9 9 9 2 2 9 9 2 2 2 2 2 2 9 2 2 2 2 2 2 2 2 2 2 2 2 2 2 2 2 2 2 2 2 2 2 2 9 2 2 2 2 2 2 2 2 2 2 2 2 2 2 2 2 2 2 2 2 2 2 2 2 2 2 2 2 2 2 2 2 2
left_child=4 3 20 10 11 15 65 22 97 105 39 33 58 19 -15 40 24 98 47 59 25 -14 90 -19 34 44 76 28 108 35 66 -23 -33 43 -6 36 48 38 100 -2 116 -40 -28 -1 52 46 -36 -12 -30 -47 84 -48 -3 99 -55 -32 70 -34 -11 61 62 85 117 64 -64 69 -25 -17 -59 86 -57 82 -73 74 75 -45 77 -21 -70 -67 81 -20 83 -42 -51 -10 -5 89 -89 107 -7 -92 -44 -94 -95 -96 -46 119 -16 -54 -37 102 -41 -104 -38 106 -9 -56 -13 -110 -58 -105 113 -112 -115 -43 -4 -61 -86 -8 121 122 -121 124 -124 -71
right_child=1 2 5 6 16 7 8 9 13 12 18 27 21 14 17 67 -18 23 80 26 -22 31 -24 30 -26 -27 42 -29 29 -31 55 32 57 -35 45 37 104 -39 41 101 71 115 92 73 96 49 51 -49 -50 50 -52 -53 53 54 87 56 110 68 -60 60 -62 -63 63 -65 -66 79 -68 -69 78 125 -72 72 -74 -75 -76 -77 -78 -79 -80 -81 -82 -83 -84 -85 118 -87 -88 88 -90 -91 91 -93 93 94 95 -97 -98 -99 -100 -101 -102 -103 103 111 -106 -107 -108 -109 109 -111 112 -113 -114 114 -116 -117 -118 -119 -120 120 -122 -123 123 -125 -126 -127
leaf_value=-0.10167492278152138 -0.03020082665819885 -0.11835425906657225 -0.016732039239643236 0.02085443963709991 -0.16298052275787997 0.0048934187845233439 0.046741264602092644 -0.021773849607885792 0.012462070569615069 0.015828568903051742 -0.03782910041359884 0.03027125607878714 0.04159532641856109 -0.017212369664524659 0.0097511943844441357 -0.12489760652006275 -0.034904885157334288 0.0011871500538713107 -0.0059061132532532284 0.019004118637324971 -0.12392671892267769 0.034211646722318696 -0.073965070796716506 0.013494546420127266 -0.20657116712114407 -0.0057395198894128205 -0.065107351929730134 0.01748422234655787 -0.06178520727271012 -0.075292925228418656 0.011195324728890474 0.030840678691523876 0.015443329528983529 -0.11864452138778624 -0.097684560082837518 -0.013600666572413843 -0.074878949973244791 0.03203358654704614 -0.10392486091698039 -0.12042171694383903 -0.02058646591964837 -0.01373118678682776 0.0087973099064922681 -0.026149443547715614 -0.13373186233500922 -0.07314568399178896 -0.16970683504498013 0.021578033875534322 -0.0063131387804643063 -0.10769036118449889 -0.081073515171569591 -0.114232920624547 0.0047647935267907601 -0.12491025543326713 -0.065857678283022664 0.025864755699564736 0.038686919421096852 0.0087141804967404476 -0.025419278452457283 0.038542696423326597 0.022173987028093992 0.02925380081915175 -0.014264615927337986 0.022116117059056768 -0.078234500412398725 -0.072092724530956734 -0.028500425941004433 -0.080534799161331549 -0.0059401336615894978 -0.041214539971594688 -0.0013460181205875465 -0.079707762306337152 -0.01567894964577812 -0.027788219235772016 -0.13282359854299047 -0.076194682608471717 0.024053556977223254 -0.038433392607918976 -0.033550962390321008 -0.030672891054224511 -0.096851894044024348 -0.091810476934343799 -0.00055119868960956729 -0.080342558623626326 -0.1735090489183686 -0.029111300742898829 -0.014475231986594379 -0.12637486060068143 -0.062166946633885202 -0.093809251035303631 -0.045261312272881049 -0.010947722051465957 -0.00067229454173138711 -0.03712636303481491 0.0079739190976215474 -0.029556698606195916 -0.09293343610010385 0.050298115958298056 -0.016170387533782419 -0.040908533195171883 -0.055707571646611422 -0.11199663480661602 -0.033926604478693854 -0.11313296362566756 -0.12483665530547523 0.0024907450236226402 -0.050483856788736098 -0.02679359364821764 0.029631796500743674 -0.015826467143426181 0.031994158832371354 -0.0692142217508281 0.043692825519419123 -0.006538115637711216 0.032161098050483089 -0.05449270914538501 0.032181956486122175 0.0017601827015624458 -0.13091292071286892 0.042274847455870311 0.046279276192722589 0.041133427751200172 0.032676619543703683 -0.0092992790809614326 0.013322023937394498 -0.0072905443247412499
leaf_weight=39.100393608212471 22.051626957952976 21.697933182120323 17.432175584137443 31.447803497314453 34.463437683880329 21.71415913105011 202.44162204116583 49.54652913659811 108.30298265069723 27.603156551718712 19.25596795976162 16.695334576070309 186.00318369269371 103.09724087268114 49.447372794151306 25.542913340032101 19.870983943343163 161.13446944952011 13.299120910465719 22.132235169410706 81.556241922080517 132.59991674870253 78.008221670985222 132.42061357945204 14.743962995707987 16.522813834249973 18.955325081944466 36.266034856438637 35.750837817788124 60.969523631036282 130.58355546742678 102.59578200429678 135.0223807618022 34.848673440515995 29.814990252256393 115.08347524702549 14.225090950727465 23.620096042752266 23.35607872158289 13.116080738604067 17.884073927998543 18.758422091603279 98.639009982347488 29.507774442434311 28.524056762456894 43.566618695855141 43.448487833142281 60.012675777077675 30.336839079856873 18.820601344108582 43.503871209919453 21.572125464677811 17.972492940723896 22.523866832256317 45.335058733820915 97.910098113119602 687.27464064955711 112.98401134461164 145.84095688164234 16.108218990266323 140.198640614748 464.80129366368055 19.525155179202557 14.183756947517393 17.28877879679203 19.522584669291973 24.338191032409668 44.187256060540676 162.99170096218586 43.408260658383369 73.329011984169483 51.756088376045227 15.608174622058867 31.745308697223663 13.51924107223749 18.859492443501949 170.12570375204086 16.635011769831181 46.394571222364902 73.408511057496071 22.241859205067158 14.652125425636767 16.232240870594978 15.844726398587225 18.403638571500778 16.140428155660629 49.856072440743446 26.844148203730583 29.394057080149651 26.120051547884941 55.609750598669052 41.30546747148037 231.67032927274704 55.755700208246708 41.318715006113052 31.426093839108944 24.708980955183506 213.10547401756048 85.954272866249084 21.702172443270683 12.684151910245417 34.77326438575983 13.024447567760943 14.857411220669745 17.366301812231541 11.808063276112078 81.84898828715086 17.019289411604404 12.602550461888312 52.227978147566319 1071.9259353205562 24.260935395956039 119.55688633024693 26.554675221443176 25.823330104351044 22.945547997951508 11.916346251964567 55.504721187055111 18.378558188676834 81.397733837366104 136.42494350671768 196.74889094382524 126.90420377999544 16.425570525228977 65.156194195151329 20.014444664120674
leaf_count=296 183 169 151 281 246 189 1910 423 986 247 161 154 1732 892 447 197 166 1437 112 199 625 1218 626 1197 99 142 154 322 290 473 1187 936 1223 270 222 977 114 212 187 104 157 157 894 240 223 345 288 539 258 141 337 163 159 173 367 909 6427 1024 1260 148 1273 4253 176 128 152 158 211 355 1446 372 663 422 134 254 103 147 1548 147 397 627 183 120 138 130 133 143 433 201 242 203 473 353 2087 480 365 270 196 2009 748 183 104 272 108 121 131 104 680 143 113 447 9937 196 1106 237 233 183 107 494 137 758 1282 1852 1175 146 604 174
internal_value=0.000142191 0.008363 -0.0231764 0.0190856 -0.0659438 -0.0077065 0.0222139 0.000146925 0.0242485 0.00733362 -0.0495259 -0.042371 0.0132013 0.0201669 0.0248137 -0.0559939 -0.118877 0.0263925 -0.023261 0.0118743 -0.0861921 0.0194583 -0.0417775 0.0281425 -0.124696 -0.0787663 0.00110507 -0.0298041 -0.0342126 -0.0407027 0.0299475 0.0130057 0.00747224 -0.0731867 -0.120258 -0.0352848 -0.0576736 -0.0251811 -0.0321895 -0.0814348 -0.0404189 -0.0604859 -0.00649595 -0.0667657 -0.0830475 -0.114059 -0.134445 0.00634623 -0.0363213 -0.100507 -0.112535 -0.151302 -0.075655 -0.0711773 -0.0832665 0.0315531 0.0327585 0.00168286 -0.017827 0.0203017 0.010394 0.0250652 -0.00451589 -0.0258327 -0.0443065 -0.0228538 0.00655622 -0.0967854 -0.00437184 -0.0138248 0.0134282 -0.0513121 -0.0648724 -0.0521877 -0.0647036 -0.0456632 0.0185425 -0.0056423 -0.0115084 -0.0393742 -0.0594409 -0.0509374 -0.0330282 -0.048658 -0.137151 0.0065441 -0.000809948 -0.0767849 -0.0928153 -0.0665952 -0.0241333 -0.0306368 -0.00407447 -0.00763198 -0.0207733 -0.00823948 -0.114795 0.0409029 -0.006243 -0.0202187 -0.0177808 -0.0927291 -0.0824624 -0.072914 -0.102342 -0.0338208 -0.0396579 -0.0551953 0.000570774 -0.00698973 0.0343946 -0.0858949 0.0322995 0.0310879 0.0125413 -0.0361582 0.00312845 0.0100338 -0.152226 0.0389729 0.0364489 0.033693 0.028643 0.0233208 0.0261106 -0.0305091
internal_weight=8811.13 7844.07 1988.2 5855.87 967.056 1608.28 5604.32 1391.88 5366.67 1195.24 251.546 660.469 1052.04 4328.06 2789.35 216.404 306.587 2686.25 129.462 1538.71 379.921 878.592 196.638 2550.85 286.716 298.365 686.658 492.888 456.622 375.096 2389.72 692.588 559.988 167.581 271.972 314.127 97.6791 216.448 192.828 122.084 146.674 65.06 477.765 132.732 281.842 237.509 94.8356 79.2686 66.0877 142.673 99.1067 65.0206 228.609 206.911 167.236 2232.96 2102.37 457.393 173.444 852.054 262.809 589.245 122.611 50.9977 36.8139 237.658 156.759 69.7302 322.37 144.727 171.239 117.325 67.3643 93.6318 61.8865 48.3673 208.893 38.7672 209.386 92.9311 50.1931 27.9512 49.961 33.7288 55.6028 124.443 81.3039 144.713 56.2382 88.4744 118.629 96.9152 458.81 360.171 128.501 72.7448 53.233 1038.6 135.402 39.6747 127.768 100.032 65.2589 52.1428 31.5914 143.204 131.396 62.3543 81.5259 64.8305 1931.14 39.1183 1243.86 1124.3 52.378 41.704 29.3485 71.6129 36.7822 825.499 623.058 486.633 289.884 208.486 192.06 63.4227
internal_count=78265 70556 17148 53408 7709 14122 51309 12331 49264 10690 2099 5432 9483 39528 25631 1791 2277 24739 1115 13897 3026 7976 1641 23544 2111 2401 6144 4122 3800 3086 22107 6244 5026 1310 2012 2613 793 1820 1608 984 1239 527 4250 1040 2259 1766 673 700 548 1093 748 451 1840 1671 1329 20699 19512 4090 1507 7753 2371 5382 1098 456 328 2045 1408 552 2867 1260 1572 981 556 744 490 387 1894 346 1843 785 415 232 425 287 411 1129 714 1156 443 713 1015 826 4096 3202 1115 635 419 9736 1195 342 1081 801 529 425 245 1207 1103 510 714 560 17940 317 11513 10407 470 340 258 642 270 7727 5817 4535 2683 1925 1779 546
cat_boundaries=0 31 62 92 123 154 185 213 244 273 303 334 364 394 425 449 480 510 541 569 596 626 657 688 719 746 777 803
cat_threshold=0 16777216 0 0 0 393216 262144 0 16 113246208 8192 65536 0 0 0 2097152 0 0 0 0 25600 3221225472 0 0 67108864 0 0 33554432 674238476 2152759424 64 536936448 0 1048576 268435456 0 16384 2048 1572864 32 524288 0 0 131328 1048576 0 0 268435456 0 0 268435456 0 32768 0 512 1074790400 134217728 1074003970 128 2560 268437504 67115009 1224740864 32768 0 16 16384 3584 1196032 67108864 0 1073741824 2304 1048576 0 0 134219776 0 0 65536 0 0 1 131072 0 0 4210696 0 0 2129920 0 134744080 2056 0 0 8 33554432 270532608 671088640 0 537133568 4096 8 0 0 0 266 524304 1024 0 0 0 2048 33554432 262145 0 0 512 134217760 24640 8388608 0 16 0 0 8448 1 131072 8192 2097152 1024 134217856 134250496 4096 0 128 4096 0 0 32768 128 0 1040 268435456 0 4194304 2097152 8388608 134480000 4 4096 2112 0 2 1082130432 16 1024 0 0 512 8 16809984 128 536870912 0 0 1073741824 2 512 256 16384 2 0 0 0 65536 32768 8192 512 18433 1048704 1024 2147483905 524288 524288 0 4210688 0 0 8192 0 0 0 0 64 8912896 524993 8192 0 16777218 71827460 2097168 32768 34603008 278784 0 0 131072 0 4 0 1074012160 65536 528 1 2097152 2 2097152 0 1090519042 0 65536 1024 0 512 4194304 16777220 0 0 33554432 8 0 1073741824 0 134217728 0 128 40 2147483664 0 1048576 1073741824 134217728 65536 0 0 0 0 0 393216 0 0 0 75497472 8192 0 0 0 0 0 0 0 0 0 17408 2147483648 0 0 0 0 0 0 1048576 67108866 20480 40960 16448 0 8388608 0 8388608 10 128 0 0 2147483648 2048 33554432 536870976 0 0 0 5259265 0 160 0 65538 4 0 268435456 0 32 4096 270008320 0 0 0 4194304 0 2148007936 0 0 0 513 0 8388608 0 0 134217728 262656 64 536872960 33554432 6 0 0 1050624 0 8 16777216 268435456 1090527233 147456 33570816 0 69206016 134217728 536903680 1 64 0 0 75497472 524304 536870912 0 268435456 64 0 1179648 65536 0 524288 0 142606592 0 0 0 16 9011200 4194305 0 0 268435968 134217728 0 0 0 0 0 0 0 0 0 0 0 0 0 0 0 0 0 0 0 0 0 0 0 16384 0 0 0 0 526336 1024 131072 33554432 2147483648 33554432 0 2048 0 3221225984 0 0 0 0 1048578 0 0 16384 8 0 0 67108864 0 0 0 1073741824 0 65536 0 0 0 67110912 0 537460736 0 33554560 32784 256 0 0 0 0 2097152 3 10752 8192 4259840 67108864 5242944 8421376 9216 524552 0 0 2147483648 262144 33685504 0 0 0 0 67108992 0 537002112 32832 2 134217728 0 2097152 8388624 0 128 0 0 0 0 0 2129920 2097152 0 2147549216 131072 64 2176 163872 65536 1075838976 0 0 0 0 0 0 262144 0 0 0 0 0 0 0 0 0 0 0 0 0 0 0 0 0 0 0 0 0 12 1081344 0 0 8454656 512 512 0 0 512 0 196608 0 0 524288 2176 33685504 2147483648 1073741824 33554448 8388608 0 0 0 1 32 32896 0 2148010240 0 0 8192 1 0 1073741856 1074397200 0 8192 0 0 2 2097152 0 71368704 1573888 4098 0 1090519040 8388608 262150 2832 0 0 0 16384 65568 0 0 0 0 589824 4096 4 16777216 1 64 1 1 0 16384 24640 268435968 139288 134217728 134217728 0 8 0 4457472 256 262144 0 16781312 1024 4096 16809984 0 67108864 0 0 270532608 16452 2 134217728 0 2147483648 0 768 0 16777216 0 0 0 1073741824 2 32 2105344 1048578 0 2 75497472 0 0 285216784 0 8 0 1074004000 4210688 2147549184 1040 131072 1677721600 1 0 0 0 2048 0 16384 67108864 33024 24576 536887296 0 0 4 16777216 0 4718592 0 4 16777216 2048 0 262144 16 0 260 128 64 2147483712 545259520 0 0 67108864 0 0 0 16388 268435456 4 512 268435456 0 67108865 0 2148532226 0 131584 8388608 0 0 0 16777282 40961 1 0 0 32 0 0 0 0 0 0 2048 0 512 0 0 0 0 2 0 0 0 0 0 0 67108864 0 0 0 1073741824 0 0 0 0 0 2048 0 0 0 2147483648 33554432 0 0 0 0 0 0 0 0 0 0 0 16384 8 0 0 0 0 0 0 0 0 65536 262148 256 0 2147483648 0 16 64 32 1 0 8389760 67108992 0 36864 1572864 1073743872 8388608 0 32768 33685504 0 0 0 32 0 0 768 0 0 0 2285896320 512 0 0 0 0 536870912 0 0 131072 536870912 0 0 0 0 0 0 0 0 2 0 131072 0 0 0 0 16384
is_linear=0
shrinkage=0.05


Tree=3
num_leaves=127
num_cat=0
split_feature=0 2 1 6 1 2 4 4 4 2 6 2 1 4 6 2 6 2 2 1 2 1 1 1 2 1 5 2 1 4 6 1 4 4 2 4 4 4 4 2 4 2 2 2 2 1 2 2 4 2 2 2 4 2 4 1 2 2 2 1 2 1 4 6 2 2 4 1 2 2 4 2 2 4 4 4 2 1 2 4 4 1 2 2 1 4 2 2 2 4 1 2 2 4 2 2 2 2 2 2 4 4 1 1 2 4 2 2 2 2 4 2 4 4 4 2 1 4 4 1 2 2 4 2 2 1
split_gain=5444.42 526.152 400.686 227.789 220.618 208.15 147.964 106.731 95.1797 82.1163 72.1701 76.5114 64.8626 53.8434 52.8672 49.2456 44.6353 42.0078 38.8851 34.7278 33.0119 32.8926 32.2771 30.7052 28.9721 28.7278 29.1872 35.0955 27.3564 32.7478 26.6353 39.7416 26.3532 24.4846 24.1247 24.6172 20.6603 22.5824 20.5757 20.3883 21.3742 19.0785 18.4916 17.7651 44.2927 17.5738 16.8837 16.8751 15.5484 15.106 18.383 14.8082 14.4609 13.8099 13.7863 13.1681 22.7966 12.6171 18.2601 17.275 15.2169 12.499 12.311 12.2906 18.1767 11.9339 21.3222 20.2428 11.7758 16.6951 11.7159 11.7778 11.6456 11.4801 27.7999 10.7883 10.5215 10.2226 11.2782 10.2717 10.0857 9.97784 9.88331 11.6792 9.64686 9.57415 9.56584 10.3382 11.445 9.51836 9.40921 9.3351 9.06955 8.68739 8.67202 8.52912 8.23492 10.7172 8.0884 10.2654 10.1696 8.06782 8.03202 7.86114 9.39617 7.85937 24.6119 15.1859 7.6171 13.8385 13.2321 9.18791 7.71145 7.63031 7.81743 7.57858 7.56817 28.5605 44.4624 9.75647 7.47434 7.82249 7.30394 19.8699 12.2488 7.72765
threshold=1.0000000180025095e-35 1.0239889705882355 1.0000000180025095e-35 1.0000000180025095e-35 1.0000000180025095e-35 1.044725378787879 303.12500000000006 181.12500000000003 254.37500000000003 0.89433908045977017 1.0000000180025095e-35 0.94980263157894751 690.00000000000011 63.375000000000007 1.0000000180025095e-35 0.67200694444444453 1.0000000180025095e-35 1.1554569892473119 0.99990614035087733 570.00000000000011 0.99772707231040569 510.00000000000006 210.00000000000003 270.00000000000006 0.89348873873873891 1.0000000180025095e-35 1.0000000180025095e-35 0.74356050382366179 210.00000000000003 211.75000000000003 1.0000000180025095e-35 90.000000000000014 226.37500000000003 538.75000000000011 1.0007756132756134 119.62500000000001 180.37500000000003 224.87500000000003 307.00000000000006 0.99857738095238113 431.75000000000006 0.92540729717813053 0.92091666666666672 0.95875820344544727 0.55224466891133572 690.00000000000011 1.0345032840722499 0.96092934782608708 274.00000000000006 0.93843513257575761 1.0012583095916432 0.99532543173672228 226.37500000000003 0.99911869517543883 175.87500000000003 270.00000000000006 1.0390804101974316 1.0690804597701151 1.0576682692307695 630.00000000000011 1.0525794723294726 270.00000000000006 478.12500000000006 1.0000000180025095e-35 1.0609257392473121 1.0320694444444445 231.87500000000003 270.00000000000006 0.90992210144927543 1.0170032051282052 439.62500000000006 1.0800500000000002 0.92540729717813053 176.87500000000003 127.12500000000001 124.62500000000001 1.0659563953488373 690.00000000000011 1.5801822916666668 681.37500000000011 237.62500000000003 390.00000000000006 1.0644685990338165 1.0893027935606063 270.00000000000006 242.12500000000003 1.000033783783784 0.98046222976370057 0.95875820344544727 282.12500000000006 390.00000000000006 1.3335546875000002 1.1035024117405585 176.87500000000003 1.030425963488844 1.0659563953488373 1.0320694444444445 1.0361744359301832 1.0183886671504598 1.0027329749103944 240.62500000000003 631.50000000000011 630.00000000000011 390.00000000000006 0.96658045977011509 374.37500000000006 1.0860153256704983 1.1251302083333337 0.94529761904761911 0.96279040404040417 236.87500000000003 0.87690860215053779 147.25000000000003 183.12500000000003 342.37500000000006 0.9231384615384618 90.000000000000014 223.62500000000003 237.62500000000003 210.00000000000003 1.0369116512345682 1.0704696833930705 399.50000000000006 1.1392952196382433 1.0536336983535264 510.00000000000006
decision_type=2 2 2 2 2 2 2 2 2 2 2 2 2 2 2 2 2 2 2 2 2 2 2 2 2 2 2 2 2 2 2 2 2 2 2 2 2 2 2 2 2 2 2 2 2 2 2 2 2 2 2 2 2 2 2 2 2 2 2 2 2 2 2 2 2 2 2 2 2 2 2 2 2 2 2 2 2 2 2 2 2 2 2 2 2 2 2 2 2 2 2 2 2 2 2 2 2 2 2 2 2 2 2 2 2 2 2 2 2 2 2 2 2 2 2 2 2 2 2 2 2 2 2 2 2 2
left_child=2 3 8 20 7 10 17 13 16 48 11 54 22 -5 57 -6 18 19 24 30 25 51 -7 -19 -1 26 75 -28 -12 49 65 120 -24 -29 35 -15 -33 -38 41 40 -11 -17 -26 44 -27 -22 -16 -37 -9 -30 -51 103 -25 -53 -4 -39 -57 58 60 70 96 -40 -10 64 -34 66 -3 -68 -31 86 105 -72 -56 74 -18 -2 -60 78 79 122 -74 -62 -65 -84 -45 -69 87 88 -70 -71 -66 101 95 -23 -87 -58 -8 -98 99 -55 -100 -73 -86 104 -13 107 -107 -59 111 110 -110 113 115 -77 -115 -113 117 -67 -119 -118 -32 -122 123 124 -48 -126
right_child=1 6 5 4 15 12 14 9 62 39 28 21 -14 34 46 38 73 23 -20 -21 45 93 32 52 42 43 27 33 29 68 31 36 63 -35 -36 47 37 55 61 -41 -42 -43 -44 84 -46 -47 77 -49 -50 50 -52 53 -54 98 72 56 92 59 76 -61 81 -63 -64 82 90 116 67 85 69 89 71 91 80 -75 -76 108 -78 -79 -80 -81 -82 -83 83 -85 102 94 -88 -89 -90 -91 -92 -93 -94 -95 -96 -97 97 -99 100 -101 -102 -103 -104 -105 -106 106 -108 -109 109 -111 -112 112 -114 114 -116 -117 119 118 -120 -121 121 -123 -124 -125 125 -127
leaf_value=-0.14831147805702888 0.035856919413676684 0.024453220515600359 0.0065331508416509379 -0.10179355774087553 -0.061099885721944018 -0.17665267430775103 0.026667806528175349 -0.080381118339332647 -0.17660155290570373 -0.036273417193229317 -0.13067551633817301 -0.10304483529707925 -0.050726662111428157 0.040932365128656965 0.0042745644404108248 0.037653533756051877 -0.16692807385478592 -0.088271397629650028 -0.15603239005049171 0.030802526008372001 0.018076043397846332 -0.071037912656178037 -0.066296389001917685 0.033857408547959517 -0.040982641423619987 -0.065457625806685543 -0.078407422610449251 0.017393305056319825 -0.018438267901461816 -0.049362655564090294 -0.068607464087975592 0.043566601388654813 -0.05841842330843048 -0.056357826100947028 -0.066575687760181246 -0.014454639302411674 -0.035965570908212063 0.039269722723455663 -0.046732703294459381 -0.0025759701886077253 -0.099779088699107454 0.018956438523943533 -0.094614748121631981 0.039708996958777325 0.03756984081512911 0.04255915873063066 -0.073638560085468222 0.022511814653891998 -0.13805979299753685 -0.084762055242445344 -0.021461581679816877 -0.13412666852239077 -0.02606600099639227 -0.084528463639917256 -0.014094683306496748 0.034813867108011452 -0.034642161618169513 0.00065643673277842435 0.037793845739717967 0.016941071116020539 -0.059416530505593292 0.0075203927366986187 -0.22223415129007798 -0.16015394452037013 -0.1398755249176909 0.018580472498504818 0.019992948356807316 -0.07293534331258468 -0.094225367631756554 -0.046303474716248204 -0.044655693764478158 0.0073665817552040049 -0.08084722810721845 -0.1683345777165276 -0.082106716484947717 0.034256015253921822 -0.010035694369665355 -0.0058349454349604299 0.0021741832267127121 -0.075774138489776335 -0.020215772125353068 -0.0054008770708944293 -0.08988144556009596 -0.13352256421404182 0.02287085021370094 -0.050899335276112678 -0.14939539451719006 -0.076921698323853482 -0.14596568704640808 -0.093049016915098912 -0.10098206555663439 -0.043864067946728515 -0.052426423577586451 -0.023878013506526779 0.0037290087704583384 0.0090017952392113434 -0.038904500592743203 0.00029549606550898178 -0.075366469808299891 -0.035343102891399851 -0.13220481883824706 -0.031725855537027531 0.038031241717361837 -0.035665260225261709 -0.052114288911967468 -0.090733082762314302 -0.026308635930083681 -0.051290666577318969 0.0096492412544400639 0.027384106777966717 -0.04494907104992428 0.034206286336059037 0.037103349074113355 -0.023160456743185325 0.019878668211540787 -0.020314399516001849 0.036404020331268001 -0.09743379962849584 0.0094140845819210024 0.01309361688817165 -0.020043681263901377 -0.066778554533937412 -0.035736966440542993 -0.093067321380089746 -0.0097723545509227922 -0.048587508713374458
leaf_weight=19.666998334228992 359.55956187844276 36.474209107458591 43.277497448027134 12.977175474166868 18.422167286276817 25.734576396644115 19.726959004998207 20.980563938617706 85.711561635136604 73.500936478376389 27.455235570669174 15.14797656983137 34.729140646755695 42.962079033255577 21.613505363464355 205.26065821200609 24.20039364695549 17.575376495718956 32.846202552318573 145.14711111783981 811.36969359219074 12.380728475749491 22.568630665540695 12.881861746311186 21.572202868759632 10.497057162225245 10.52176685631275 287.15687631070614 23.536710664629936 14.319482773542402 19.288600124418736 26.396121576428413 15.206491470336912 11.712755396962164 11.586017288267611 94.144287742674351 41.348784759640694 24.92408698797226 11.950889497995375 34.682592876255512 16.163351058959961 406.92002660036087 63.032890699803829 141.17038603872061 1682.4573600739241 80.573341049253941 19.98763120174408 45.936029002070427 26.369093492627144 39.216694861650467 16.210425682365894 14.950351081788538 46.091037049889565 34.020235128700733 49.222962751984596 29.085177302360535 18.319525502622128 35.23924582451582 35.904335670173168 29.872431628406048 23.33577573299408 95.054278068244457 17.860195010900497 25.999606147408485 29.514409683644772 84.035348705947399 18.874832965433598 15.876029059290884 23.483310014009476 19.397804111242294 23.21890265494585 75.007961131632328 15.796359255909922 54.04941138625145 16.077442064881325 26.263361848890781 16.914901286363602 18.824817314743996 12.674662113189695 26.283190123736858 12.122371286153792 13.492700830101965 18.683019123971462 85.439355507493019 547.23315387964249 15.127656817436218 13.373332008719442 24.171767726540565 19.615804299712181 24.828431688249111 32.867157459259033 13.642067909240721 15.169544517993925 46.225381195545197 13.977076105773449 28.781289577484131 22.64962887018919 75.749427676200867 17.07981996238232 15.415081717073916 14.594349168241022 16.016219861805439 103.96433752775192 23.335779182612896 22.517864793539047 20.739752665162086 51.978603236377239 23.418189346790314 52.680210128426552 102.8528872653842 14.05861523747444 13.246901527047159 206.20395632088184 19.63513171672821 22.803843125700951 12.284933611750601 51.070098333060741 15.989288128912447 24.897347137331963 370.83783543854952 35.812028400599957 11.938581600785254 144.03773075342178 23.87907150387764 28.008279129862785 23.650696896016598
leaf_count=142 3396 330 388 95 152 165 183 155 538 608 194 121 278 390 192 1935 154 131 215 1357 7503 103 167 118 173 86 79 2645 199 113 157 250 112 92 95 813 344 225 102 294 114 3731 455 1355 16164 764 157 412 167 302 130 111 377 257 418 268 153 317 326 275 190 848 108 178 195 763 174 123 182 147 186 637 129 334 110 242 144 161 113 200 101 119 136 554 5131 127 97 182 139 180 236 111 112 380 126 252 188 659 131 124 109 128 989 187 177 164 430 175 484 953 117 125 1921 163 209 114 479 126 219 3362 300 95 1161 177 237 184
internal_value=0.000447617 0.0161768 -0.0981508 0.0239047 0.00368659 -0.0803022 -0.00631144 -0.027302 -0.144631 -0.056467 -0.063036 -0.0479805 -0.114847 -0.0031816 -0.0225073 0.0196219 -0.126803 0.00548732 -0.108591 0.00811027 0.0289048 -0.0658068 -0.123545 -0.0302641 -0.093647 0.0310255 0.0244498 0.0113433 -0.0836378 -0.077718 0.00444335 -0.00938021 -0.11761 0.014503 0.00339351 0.00782235 0.00262659 -0.00422914 0.0216897 -0.0351294 -0.0477213 0.0252255 -0.0809399 0.034039 0.036931 0.0202877 -0.0383936 -0.00233236 -0.112502 -0.051998 -0.066249 -0.0777347 -0.0129765 -0.0899692 -0.0160539 0.00705626 -0.00173238 -0.01231 -0.00291137 -0.019064 -0.0115654 0.00146113 -0.184471 -0.123186 -0.107435 0.00980617 -0.00604521 -0.0234659 -0.0923091 -0.097234 -0.0232125 -0.0124395 -0.0287255 -0.153277 -0.13307 0.0293378 0.0224769 -0.0414951 -0.0439053 -0.0461022 -0.0545209 -0.039627 -0.132578 -0.125692 0.0278599 -0.0417021 -0.110773 -0.103095 -0.117774 -0.0725462 -0.119384 -0.00529275 -0.0188024 -0.0338407 -0.024665 -0.00797321 -0.0028166 -0.00872761 -0.0818299 -0.0691913 -0.101556 0.000488046 0.0252912 -0.0584689 -0.0725969 -0.0336993 -0.0446829 -0.0200827 0.0243508 0.0158789 -0.00185196 0.029133 0.0338939 0.0130742 -3.41334e-05 0.00797304 0.0127145 0.00190443 -0.0323703 0.0159152 -0.0423392 -0.0317283 -0.0428468 -0.0535673 -0.0404024 -0.0275428
internal_weight=8776.4 7568.94 1207.46 5633.16 1116.91 872.438 1935.79 379.302 335.017 171.697 581.696 336.087 290.742 207.606 815.867 737.608 231.446 1119.92 137.118 1043.37 4516.25 215.668 256.013 76.5483 104.272 3624.3 1138.98 309.391 245.609 218.154 898.223 251.064 230.279 298.87 194.628 183.042 184.025 157.628 719.186 124.347 89.6643 612.181 84.6051 2485.32 1692.95 891.943 318.96 140.08 47.3497 78.9638 55.4271 157.061 58.9729 96.0598 120.419 116.28 91.3555 496.907 207.774 289.133 154.954 107.005 103.572 207.71 77.5881 647.16 100.33 63.8556 139.19 124.87 259.261 127.885 77.1417 94.3272 40.2778 829.589 52.8192 297.346 278.521 265.847 27.9187 36.8285 130.122 104.122 792.368 44.9808 80.6442 67.2709 43.0991 44.2262 62.3816 104.666 62.2704 58.6061 29.1047 47.1008 118.126 98.3991 81.1095 49.4353 31.6742 91.0242 651.197 61.0016 37.6658 131.376 72.7184 58.6574 470.03 169.592 66.7388 300.438 231.736 68.7023 42.439 25.5318 546.83 124.922 40.8866 421.908 67.0392 47.7506 239.563 95.5257 71.6466 51.659
internal_count=78076 69225 8851 52443 9911 6622 16782 3143 2229 1338 4601 2736 2021 1805 6814 6768 1583 9968 985 9342 42532 1700 1743 626 770 34265 10540 2816 1865 1671 7985 2156 1578 2737 1710 1615 1604 1354 6616 1016 722 5666 628 23725 16250 8267 2582 1225 322 631 432 1217 495 732 1036 1010 785 4232 1809 2423 1339 950 646 1411 543 5829 880 550 1040 927 2148 1062 648 598 264 7724 470 2390 2229 2116 230 309 868 690 7475 376 600 503 321 327 431 876 517 483 253 405 1030 847 621 381 240 765 6120 485 298 1086 594 492 4328 1554 601 2774 2160 614 372 239 4949 1108 345 3841 552 395 1916 755 578 421
is_linear=0
shrinkage=0.05


Tree=4
num_leaves=127
num_cat=0
split_feature=0 2 1 6 1 3 2 6 2 1 3 6 2 2 2 6 2 2 3 2 3 1 1 1 2 2 2 1 2 1 2 3 2 3 2 2 1 3 5 2 3 2 3 2 1 3 6 3 1 3 3 1 1 6 3 2 2 2 2 2 3 3 3 1 5 1 2 3 3 3 2 3 2 1 2 2 3 5 1 5 2 2 1 1 3 2 3 3 1 1 2 2 3 3 3 2 3 3 1 2 2 2 2 2 2 3 2 3 2 3 3 3 2 1 2 3 3 3 3 3 1 3 2 2 3 2
split_gain=4569.14 492.094 319.101 200.926 165.674 142.758 137.735 85.2394 84.6996 72.4334 68.5705 50.5019 45.8212 45.031 41.776 40.0617 63.4993 40.0016 35.1374 66.1738 34.0135 30.9434 25.4365 23.889 35.2501 28.5349 23.1477 22.3477 21.3634 19.813 17.8271 17.813 16.9957 19.9568 23.638 15.6439 26.7665 15.5803 15.1113 26.3498 15.5729 17.5197 14.6518 17.2857 15.7132 13.9003 13.8429 16.6877 14.4408 20.9113 18.8811 24.7601 13.7695 13.7645 13.669 13.2173 12.9568 12.1021 17.6219 11.4339 11.1843 11.0296 10.9963 21.4223 18.3867 16.9648 9.95012 9.87178 9.86525 9.72337 11.2495 9.63829 18.4732 9.40455 9.35295 23.5713 10.3872 9.32379 9.17441 9.07149 9.09744 9.00675 8.93166 8.90682 8.64227 8.24749 11.0215 11.8801 8.24055 8.14905 7.84067 7.82271 7.54411 7.3864 6.99134 6.91286 6.79673 10.8106 9.53206 6.8556 6.76102 6.75171 6.59734 8.41181 9.82574 6.76719 6.26131 6.20507 6.19226 6.0604 6.00175 8.67913 5.96613 5.9345 11.6665 19.1965 10.7928 11.2862 8.84877 14.6589 13.1567 8.28432 5.93011 6.06165 5.90013 12.2171
threshold=1.0000000180025095e-35 1.044725378787879 1.0000000180025095e-35 1.0000000180025095e-35 1.0000000180025095e-35 2730.0000000000005 0.96820202020202017 1.0000000180025095e-35 1.0005849753694582 510.00000000000006 3090.0000000000005 1.0000000180025095e-35 0.67200694444444453 0.71321428571428591 1.0690804597701151 1.0000000180025095e-35 0.99943486590038322 1.0924865591397852 750.00000000000011 1.3335546875000002 450.00000000000006 210.00000000000003 570.00000000000011 1.0000000180025095e-35 0.55224466891133572 0.95875820344544727 0.85178736772486785 690.00000000000011 0.9333611111111112 450.00000000000006 1.2114860681114554 2850.0000000000005 1.1392952196382433 1410.0000000000002 1.2114860681114554 0.92540729717813053 330.00000000000006 1950.0000000000002 1.0000000180025095e-35 0.74356050382366179 2670.0000000000005 0.89990384615384633 2070.0000000000005 1.0461219336219338 330.00000000000006 1590.0000000000002 1.0000000180025095e-35 3510.0000000000005 390.00000000000006 2250.0000000000005 1710.0000000000002 270.00000000000006 150.00000000000003 1.0000000180025095e-35 1710.0000000000002 0.92540729717813053 0.9026388888888891 1.0732772435897437 1.1461371703853958 1.0924865591397852 2070.0000000000005 1770.0000000000002 3450.0000000000005 390.00000000000006 1.0000000180025095e-35 390.00000000000006 1.0369116512345682 1710.0000000000002 2790.0000000000005 1830.0000000000002 0.96367216117216115 3210.0000000000005 1.0170032051282052 270.00000000000006 0.99990614035087733 0.99953042328042341 3090.0000000000005 1.0000000180025095e-35 270.00000000000006 1.0000000180025095e-35 1.007682291666667 0.94529761904761911 330.00000000000006 450.00000000000006 3090.0000000000005 0.96194294699011695 1410.0000000000002 1590.0000000000002 330.00000000000006 570.00000000000011 1.1204885057471266 0.99772707231040569 1530.0000000000002 3210.0000000000005 2910.0000000000005 1.0832537878787882 1710.0000000000002 1530.0000000000002 270.00000000000006 1.1035024117405585 0.95581521739130426 0.99943486590038322 0.97717777436527442 1.044725378787879 1.0609257392473121 1650.0000000000002 0.94980263157894751 1950.0000000000002 0.96864168247944349 1170.0000000000002 1710.0000000000002 1650.0000000000002 0.78360023041474658 330.00000000000006 1.030425963488844 1290.0000000000002 1530.0000000000002 990.00000000000011 1710.0000000000002 1770.0000000000002 270.00000000000006 1770.0000000000002 0.97781565656565661 1.0207276785714288 1590.0000000000002 1.0019463012477721
decision_type=2 2 2 2 2 2 2 2 2 2 2 2 2 2 2 2 2 2 2 2 2 2 2 2 2 2 2 2 2 2 2 2 2 2 2 2 2 2 2 2 2 2 2 2 2 2 2 2 2 2 2 2 2 2 2 2 2 2 2 2 2 2 2 2 2 2 2 2 2 2 2 2 2 2 2 2 2 2 2 2 2 2 2 2 2 2 2 2 2 2 2 2 2 2 2 2 2 2 2 2 2 2 2 2 2 2 2 2 2 2 2 2 2 2 2 2 2 2 2 2 2 2 2 2 2 2
left_child=2 3 15 8 5 13 11 14 23 17 -7 35 -6 -5 42 16 26 46 88 22 -15 -19 31 38 -25 -26 -1 32 37 113 53 57 68 34 -34 45 -37 -28 81 -40 92 -42 43 -3 78 82 48 102 50 79 -8 -52 -13 59 -30 -14 -54 77 96 107 -53 112 63 64 -33 90 -57 -60 -9 70 -63 -31 -73 110 75 -75 -77 -20 -44 80 -50 -2 -4 -23 -55 86 -83 -88 -16 -58 -64 -87 109 -80 -62 101 97 -59 -98 -100 -71 -17 -48 105 -105 -104 -38 -11 -102 -41 111 -27 -22 116 115 -115 117 -10 120 -120 -118 -116 -110 -124 125 -117
right_child=1 7 6 4 12 10 9 27 29 30 -12 52 55 20 18 95 -18 21 19 -21 61 83 -24 24 25 73 28 -29 54 71 -32 62 33 -35 -36 36 106 -39 39 40 41 -43 44 -45 -46 -47 47 -49 49 -51 51 60 56 84 -56 66 89 58 67 -61 94 69 65 -65 -66 -67 -68 -69 -70 100 -72 72 -74 74 -76 76 -78 -79 93 -81 -82 85 -84 -85 -86 91 87 -89 -90 -91 -92 -93 -94 -95 -96 -97 98 -99 99 -101 108 -103 103 104 -106 -107 -108 -109 122 -111 -112 -113 -114 114 121 124 118 -119 119 -121 -122 -123 123 -125 -126 -127
leaf_value=-0.15105017886564331 0.03075665229578349 -0.031709575529293342 0.0036189559380326204 -0.087072518269653176 -0.057513197878121348 -0.12370427106064696 -0.052338738276159792 -0.018739967643735179 -0.012957047665112527 -0.043346300347332362 -0.013025408373881187 -0.10622702792231474 0.02881662433174402 -0.083485651401143252 -0.0051372183200342238 -0.14689137619653281 -0.15569215732704778 -0.17305858272644206 -0.051759158883710257 -0.10115267674810711 -0.026116539131617208 -0.11429345787158032 0.018985641914078945 -0.056552296658130843 0.036351080793166894 0.045018792348343606 -0.041273858130134122 0.013150870745040365 -0.062521477329407882 0.026899329386053092 -0.10537704019613719 -0.040579290538722557 -0.080727817606070534 -0.057240531680155443 -0.0013833163219910869 -0.079174464119700416 -0.0010560809389847413 -0.097156154405265482 -0.061319114948062518 0.014602332032854852 -0.046208074291005111 0.012030154724336424 0.0069545722551783489 0.032228659968974747 0.015610355541374625 0.010418661117093966 -0.12074872390369328 -0.14416495987524844 -0.032557362425317489 -0.018105616460040844 -0.047308622136832817 -0.083634079692990151 -0.034378942859150045 -0.059721584865128553 -0.1165265590038279 0.016056565542661227 -0.086014900361927049 -7.8085059349631463e-06 -0.049342624656440098 -0.072547285734971698 -0.15254887882550344 -0.0020047162134238321 -0.0085400971213217044 0.0065416896657646099 -0.10608082240091535 -0.03726075234459221 -0.016869132559948506 -0.0093622668273314943 -0.03846561786654111 -0.028222226070637055 -0.056195748021667893 0.033785962278407244 -0.035755919328340734 0.023488410977118512 0.035536879735267833 0.0079271215493429675 -0.050421808378254107 -0.00050563139820452728 -0.052339926705725827 -0.10460056615876219 -0.087847821369032464 0.0345051187315309 -0.046858839962263726 -0.081491917097105682 -0.10213420764468512 0.030746039603622807 -0.049282335674328104 0.0063752843485150356 0.041192018259425756 -0.044267715173360332 0.041669519418035379 0.011955078475497864 0.017292049252371502 -0.0041730133550714919 -0.11118547681695562 -0.17162529722912945 0.024346637123851947 0.032845065488630011 -0.031778986566735723 0.0044556155413184957 0.024903895044681938 -0.12496620240393599 -0.099880967350283067 -0.13104360809568677 -0.077501443653328297 -0.065769432007433362 -0.034435990531561898 -0.01194060612977013 -0.0358017909019617 0.046859659587155406 0.039726457410865751 -0.010136458956548517 0.0082349261506135252 -0.046895911570736686 0.00017626338206993262 -0.03184668367585438 -0.028276756144081251 0.036313404833963378 0.039889550313833962 0.0051739001573545725 0.026970926336466 -0.0298756599282766 0.018354022196364936 -0.015422253176973029 0.022945377843964138 0.033309063109394639
leaf_weight=14.494595989584921 549.76977746933699 11.654322102665899 13.024424843490122 17.675840944051743 20.188153557479382 45.027201771736145 29.00125040858984 224.68417980521917 14.238331340253351 31.857898220419884 20.304824404418468 19.316567063331604 232.30909629911184 13.387633457779883 12.837152160704134 106.19205133616924 53.918380454182625 20.754292190074921 24.825400829315186 20.92216782271862 13.614348798990248 91.283001750707626 64.195126451551914 11.254505373537539 1626.0621879771352 13.090257368981838 35.1816371306777 30.469251237809658 15.397040665149687 233.63150507211685 17.96109427511692 39.237088106572628 12.176118887960909 103.68737477064133 40.97577753663063 28.216650158166885 25.268388673663139 19.323625847697258 11.10995079576969 21.319747515022755 18.676991522312164 41.849053703248501 22.619117669761181 113.6940533220768 94.764489226043224 44.058022700250149 15.320660494267939 16.198902890086174 15.223810799419882 22.599290505051613 17.641424514353275 19.830411784350872 32.31881545484066 80.974683471024036 49.01897320151329 551.69060099869967 40.629627287387848 63.540613643825054 26.28772796690464 18.509824588894844 18.159602448344231 16.393148511648178 19.611146450042725 16.562372416257858 14.737994469702242 40.033120155334473 23.941287778317928 37.415265515446663 88.292865574359894 24.164452061057091 23.031782813370228 19.548785753548145 18.670257441699505 754.23163425922394 145.77111180871725 15.206342428922655 15.303306922316549 13.8090278878808 21.096567265689373 17.922196567058563 14.550439365208147 24.692771650850773 26.786332182586193 26.763066038489342 14.102831691503523 175.13690359890461 12.176032707095144 45.101490639150143 38.039760954678059 16.410955488681793 12.883232302963732 81.002391085028648 201.44756489247084 12.781517237424849 23.352862536907196 18.907880783081055 18.236550509929657 41.327085472643375 32.917087942361832 21.632675692439079 21.582482576370239 52.458717063069344 20.524794116616249 18.235858768224716 16.163642913103104 49.857566110789776 31.63954958319664 31.063608445227146 13.285542592406271 45.928990267217159 164.18155746161938 15.671439342200756 176.58780287206173 13.309881307184694 51.555899858474731 16.256436400115494 37.316241167485714 63.274596117436886 35.731857687234879 204.09997650980949 15.15131179243326 41.305721163749695 26.694422081112862 26.440161049365997 87.828821144998074 12.906515233218668
leaf_count=90 5258 97 117 132 159 258 216 1855 129 255 166 126 2222 111 117 606 316 116 196 139 113 547 592 88 16080 129 263 273 106 2214 119 311 97 760 338 220 209 135 79 202 156 375 197 1079 860 374 101 101 115 173 125 143 264 589 317 5100 288 571 206 137 117 128 171 142 106 314 199 302 698 194 181 186 159 7215 1390 139 138 124 163 131 106 235 233 170 96 1679 108 406 356 125 118 752 1873 104 151 102 168 384 284 190 194 301 143 110 106 353 250 244 110 443 1619 148 1531 111 465 148 332 598 344 1849 146 340 232 217 814 126
internal_value=0.000436489 0.0154707 -0.0864317 0.0214721 0.00373516 -0.0211273 -0.0708197 -0.0120225 0.0260995 -0.0834474 -0.0893059 -0.0413569 0.0168907 -0.00918106 -0.00225035 -0.12603 -0.109901 -0.0943969 -0.0101141 -0.0140803 -0.00530475 -0.116756 -0.0103415 0.0291749 0.0317557 0.0321172 -0.0913951 -0.0283456 -0.0841241 0.0119143 -0.0579199 -0.0147917 -0.0310367 -0.0444707 -0.0195597 -0.024257 -0.0393572 -0.0610857 0.0233737 0.0144158 0.0169715 -0.00594087 0.0136428 0.026284 0.00316725 -0.00893081 -0.0845317 -0.0965273 -0.0753608 -0.0577235 -0.0868422 -0.0995111 -0.0679475 -0.0530908 -0.103618 0.0187498 -0.0596727 -0.00745777 -0.0032988 -0.0380035 -0.114524 -0.0022425 -0.0291448 -0.043201 -0.0584646 -0.0154742 0.0146871 -0.0258606 -0.0243047 -0.0123034 -0.0336628 0.0230915 -0.000185711 0.0259892 0.023906 0.0217455 -0.0213401 -0.0334397 -0.017704 -0.0764951 -0.0595774 0.0268074 -0.0303446 -0.106857 -0.0660126 0.0203859 0.00658163 -0.00545639 0.0295023 -0.074004 0.0113668 0.0248035 0.0221327 -0.0341675 -0.12928 -0.143048 0.00479138 0.0129391 -0.00694754 -0.0174095 -0.00479597 -0.139642 -0.0901021 -0.0856211 -0.105885 -0.075717 -0.0196146 -0.0278417 0.0016366 0.0366332 0.0360355 0.0149662 0.00577611 0.00679006 0.000350992 0.010002 0.0106757 0.0272629 0.00627707 0.0103461 -0.0123226 -0.0131911 -0.00592385 0.0015467 0.0164751 -0.003011
internal_weight=8746.49 7456.08 1290.42 6120.13 1266.32 438.19 925.522 1335.95 4853.81 647.853 65.332 277.669 828.129 372.858 835.661 364.893 187.334 453.383 559.051 508.174 355.182 138.8 487.252 3988.98 2760.77 2749.52 133.416 500.286 118.921 864.826 194.47 423.056 469.816 156.839 53.1519 168.993 85.1246 54.5053 1228.21 340.332 329.222 60.526 276.61 125.348 151.262 83.8688 314.583 136.301 178.281 70.2957 107.986 78.9843 108.676 176.509 64.416 807.941 89.3594 279.991 241.357 81.4313 61.3429 341.794 143.065 70.5375 53.9751 72.5275 575.632 63.703 312.977 151.592 39.4249 271.851 38.219 1123.46 930.512 784.741 30.5096 38.6344 56.4972 47.6964 29.7743 887.879 39.8108 118.046 95.0775 338.11 81.9703 57.2775 50.8769 57.0406 32.4944 256.139 268.696 33.8781 41.5125 177.559 177.654 104.868 72.7863 54.5498 112.167 158.651 120.103 104.782 34.3995 70.3824 56.9079 62.9215 88.0026 67.2487 192.943 28.7617 190.202 592.976 223.163 130.302 369.812 77.5129 292.299 239.832 52.4676 92.8616 66.4201 53.1346 116.992 29.163
internal_count=77938 69032 8906 57720 11247 3567 6670 11312 46473 4464 424 2206 7680 3143 7291 2236 1227 3024 4791 4318 3011 833 4179 38512 26946 26858 911 4021 821 7961 1440 3587 3748 1195 435 1403 679 398 11566 3128 3049 531 2500 1176 1324 724 2191 914 1277 525 752 536 803 1321 423 7521 677 2425 2105 636 411 2900 1162 559 417 603 5299 508 2553 1256 309 2559 345 10778 8882 7492 277 320 464 352 221 8438 350 717 685 3180 749 514 473 413 289 2431 2518 267 268 1009 1597 955 642 474 947 907 813 712 216 496 459 499 753 645 1896 277 1644 5402 2004 1199 3398 727 2671 2193 478 805 559 449 1088 274
is_linear=0
shrinkage=0.05


Tree=5
num_leaves=127
num_cat=30
split_feature=0 7 2 7 7 7 1 7 7 7 7 1 7 7 4 2 7 2 2 7 2 7 2 1 2 7 7 4 1 2 1 4 4 1 2 7 7 4 7 4 7 2 4 2 2 7 7 7 4 2 2 4 2 2 2 4 2 2 4 4 2 4 2 2 4 2 2 1 2 7 4 1 4 4 1 1 2 2 7 5 2 2 2 4 1 4 2 2 4 7 4 2 4 2 7 4 2 2 7 7 1 4 4 4 4 1 7 2 4 4 4 4 2 2 2 7 2 5 4 2 2 2 2 5 2 2
split_gain=3979.73 838.043 333.577 309.271 271.388 213.673 175.689 154.21 131.524 104.285 87.7556 71.5144 81.0225 59.3903 48.8017 46.6644 46.1612 43.1009 40.7149 35.7076 32.8672 31.7811 42.4362 30.4004 30.2492 28.0924 43.5083 27.1574 26.2581 24.8779 22.4614 21.0658 20.7561 20.5739 17.1851 16.1267 28.2107 15.4393 15.4242 14.7807 16.4293 16.0633 19.535 14.4429 14.087 54.6436 15.4496 13.9661 12.1069 12.0846 14.1494 21.2676 18.546 13.4854 12.0653 12.2783 12.0285 16.1737 11.8799 11.7203 11.491 11.3937 10.7871 33.5443 10.2499 9.83401 9.60972 9.4595 9.29782 9.02639 17.5408 8.97706 8.56107 8.42475 8.40482 9.7793 8.32653 8.11144 8.47944 8.59304 7.83691 7.76507 7.39379 7.29076 7.27083 9.78919 7.22909 6.90174 10.4415 6.79214 6.7568 6.59667 6.54531 6.53982 6.36601 6.2335 6.14538 8.23102 10.8713 7.00789 5.98386 5.97441 5.87082 5.83588 8.70349 5.83398 8.14188 16.9692 12.1673 5.6471 5.58764 5.56682 5.40302 5.37969 5.28363 5.28114 5.16197 5.61933 5.02657 4.94867 7.45427 5.67824 4.91115 5.93841 4.97339 9.04276
threshold=1.0000000180025095e-35 0 1.0239889705882355 1 2 3 1.0000000180025095e-35 4 5 6 7 150.00000000000003 8 9 254.37500000000003 1.1302068965517242 10 0.95875820344544727 0.84232943469785582 11 0.99857738095238113 12 1.0027329749103944 570.00000000000011 0.93227272727272747 13 14 602.87500000000011 630.00000000000011 1.0207276785714288 630.00000000000011 421.62500000000006 295.25000000000006 570.00000000000011 1.0625946969696971 15 16 119.12500000000001 17 177.87500000000003 18 0.71321428571428591 121.37500000000001 1.0752743902439026 0.96092934782608708 19 20 21 327.87500000000006 0.96279040404040417 0.89486571618037136 245.12500000000003 0.946443812233286 1.0239889705882355 1.1392952196382433 390.75000000000006 1.0005292338709679 1.044725378787879 121.37500000000001 419.12500000000006 1.1392952196382433 304.87500000000006 0.78360023041474658 0.84232943469785582 478.12500000000006 0.89990384615384633 1.0546613060428851 270.00000000000006 1.1087839506172843 22 474.12500000000006 270.00000000000006 177.62500000000003 439.62500000000006 90.000000000000014 450.00000000000006 0.89486571618037136 0.9348392210144929 23 1.0000000180025095e-35 1.2114860681114554 0.9982321428571429 0.9615470085470087 296.25000000000006 390.00000000000006 239.87500000000003 0.79859848484848495 0.96923137626262623 176.87500000000003 24 199.00000000000003 1.044725378787879 339.87500000000006 1.196552802802803 25 342.37500000000006 0.92204673202614396 0.96658045977011509 26 27 390.00000000000006 122.12500000000001 301.75000000000006 539.25000000000011 460.12500000000006 450.00000000000006 28 0.99970380116959079 298.12500000000006 593.50000000000011 240.62500000000003 303.87500000000006 1.000033783783784 1.094998896612601 1.094998896612601 29 1.1392952196382433 1.0000000180025095e-35 220.37500000000003 0.89660919540229889 0.95875820344544727 0.99990614035087733 0.96245689655172428 1.0000000180025095e-35 0.89990384615384633 0.87494791666666683
decision_type=2 9 2 9 9 9 2 9 9 9 9 2 9 9 2 2 9 2 2 9 2 9 2 2 2 9 9 2 2 2 2 2 2 2 2 9 9 2 9 2 9 2 2 2 2 9 9 9 2 2 2 2 2 2 2 2 2 2 2 2 2 2 2 2 2 2 2 2 2 9 2 2 2 2 2 2 2 2 9 2 2 2 2 2 2 2 2 2 2 9 2 2 2 2 9 2 2 2 9 9 2 2 2 2 2 2 9 2 2 2 2 2 2 2 2 9 2 2 2 2 2 2 2 2 2 2
left_child=3 15 5 89 30 67 14 71 20 32 81 21 122 -11 18 19 -14 58 -5 27 72 22 37 56 101 -15 33 29 54 62 34 113 118 38 61 -18 -37 -12 -27 41 76 42 -23 48 46 105 -38 68 -36 50 51 -21 -52 -51 -19 -56 -22 -58 -10 77 103 74 -2 -64 -16 83 -31 -3 -28 70 -61 -6 -8 -32 -4 -76 90 86 -79 115 -34 -7 -69 -39 85 -74 -42 88 -26 -1 -41 -55 119 -17 -60 -96 -67 98 -98 -99 -62 -20 -86 104 111 106 107 -46 -109 -57 -30 -45 -84 -25 -68 -80 -49 -118 -9 -65 -121 -122 123 124 125 -13
right_child=1 2 4 6 7 10 8 9 17 13 11 12 16 25 64 93 35 28 24 49 23 39 -24 31 87 26 47 -29 110 66 73 -33 80 -35 43 36 44 65 -40 40 59 -43 -44 60 45 -47 -48 116 -50 53 52 -53 -54 91 55 109 57 -59 94 69 100 -63 63 92 -66 96 114 82 -70 -71 -72 -73 84 -75 75 -77 -78 78 79 -81 -82 -83 112 -85 102 -87 -88 -89 -90 -91 -92 -93 -94 -95 95 -97 97 99 -100 -101 -102 -103 -104 -105 -106 -107 -108 108 -110 -111 -112 -113 -114 -115 -116 -117 117 -119 -120 120 121 -123 -124 -125 -126 -127
leaf_value=0.032191523816061308 0.029629239715828166 -0.012644746803219021 -0.037415842505685769 -0.15543276765600633 -0.022736165808851315 0.042141013838306839 -0.10266564361156234 -0.017976847326421797 -0.0021146421712250241 -0.013171146646391392 0.03136784468417321 -0.023464594941599998 -0.0028111835309148738 -0.0023724579049417146 -0.13193878647642066 -0.1190630071236148 0.0071185651013632367 -0.064586332168343932 -0.039944765043586572 -0.048082826573017289 -0.15477936276617196 0.023457588001882974 -0.089417273509624778 -0.044832554952986638 -0.071964293204448873 -0.031425996820666754 0.018541392754921473 -0.094432141222488483 -0.046904565772519655 -0.073023274660189957 0.016385111873867944 -0.12916811972189116 -0.031150620791104533 0.037503892682045729 -0.10297579684004694 0.0097184381094836264 0.0077782860802936343 -0.054378051111895843 0.0054013203066300176 0.019063283429713612 -0.0019420962200435788 0.026916182195253879 -0.057118785478618629 -0.016480869851894307 -0.059625118623835439 0.036110030928545964 0.040657476434262117 0.039267509988717149 -0.05082055721139004 -0.11292066421112433 0.0088648330468214017 -0.10462043488913385 -0.064223667871484161 -0.044575672100466451 -0.12252878418314771 -0.054163429816180553 -0.089830491537111021 -0.12555995143420007 0.0059306402707593924 -0.060421440761605084 -0.041191467217269892 -0.042585984760899254 -0.093672898095777307 -0.035290725672623827 -0.17038860634917233 0.024274780962414668 -0.0089415314243514524 -0.048368641713209364 -0.029742599818512891 0.013098232064395567 0.0083357489799683483 -0.051062611942227033 -0.023962620040106131 -0.032798969513433938 0.0092006077795563253 -0.037746799252906943 -0.039754330922039748 -0.0077455869053178021 -0.0014948670772700142 0.032324762628318827 -0.067866085325410566 0.030953251526683292 -0.014055445825016721 -0.0028559572499118726 -0.1025264835681205 -0.07926284900934441 0.030863980663723867 -0.11187462812770094 -0.11152839570506695 0.0015904719076346196 -0.028334028977569366 -0.079746393009772695 0.026597154075481733 -0.082675377809330389 -0.038977654352249001 -0.068156487854362263 -0.039659708282636638 0.020708734704520487 -0.00076895613615415664 -0.0080560509376644031 -0.077418965703517348 -0.073592334581747965 -0.060375070625017541 -0.062094598202906665 0.0079014277931105121 0.012316027881921699 0.011785078578691231 -0.026666692013694551 0.037883760448884599 -0.093532656884963025 -0.014498181146156502 -0.045658755157252207 -0.046574820289986003 -0.082721116668869402 -0.051777499858500914 0.018737352177736821 0.018513710931057033 0.045830385990720535 0.010884970377013933 0.023936503262068587 -0.026772057726035282 0.0056664854192720188 -0.025926224435386794 0.025714934380989426 -0.037312429667381124 0.025775012420784567
leaf_weight=40.237912446260452 14.655304715037344 84.950712464749813 29.028796806931496 29.577795341610909 40.867472141981125 987.97397676855326 21.887932471930981 25.746962331235409 25.745739609003067 107.11165180802345 42.648821465671062 22.170671053230762 102.71945090591908 87.908622831106186 101.97657214105129 19.315237611532211 81.861434884369373 303.5903112962842 19.831002175807953 50.844941914081573 23.06450791656971 17.994554184377197 12.798366911709307 24.312995463609695 34.189433857798576 27.417557299137115 83.137772791087627 14.17638362944126 26.882639542222023 25.92405954003334 25.459672711789608 14.912217259407042 69.980617016553879 38.65397684276104 21.13301769644022 143.93384136259556 58.071637734770775 14.192644737660887 111.57280702888966 19.76655408740044 18.762449309229851 497.85247367620468 12.924999184906481 25.168653130531311 18.31896710395813 764.49513466656208 1008.64649528265 550.06218808889389 23.500507310032845 22.357465103268623 17.199562318623066 24.720601096749306 17.521266788244247 20.697597101330757 19.00552225112915 19.066245838999748 42.890530154109001 121.11023725569248 12.709092654287813 16.338826417922974 18.716687083244324 74.29572656750679 12.384454943239687 17.452958956360817 20.88224159181118 27.753522239625454 13.935548886656763 53.024199940264225 11.3291188031435 42.826074846088886 21.457685559988022 88.625252515077591 17.260591626167297 13.231397204101084 39.10096187889576 15.485344305634497 20.587310068309307 39.36997164785862 61.723894961178303 67.578861206769943 18.34381765127182 183.97665028274059 45.971747152507305 13.301618382334707 17.787422426044941 14.920149497687815 159.93729208409786 103.71654170751572 32.556042581796646 41.79998130351305 12.135662779211996 37.465142577886581 12.980252563953398 34.232634827494621 102.34076479822397 22.290173456072807 14.437763072550297 46.84311306476593 81.014707326889038 30.15688543766737 29.151795737445354 39.409628108143806 15.423449657857416 15.161493062973021 13.817107334733008 74.149874210357666 30.481166258454323 16.683223031461242 12.979932330548761 17.440551698207855 26.329956606030464 46.639330603182316 17.687266930937767 15.242124140262602 14.890988931059836 65.107427522540092 64.905061274766922 26.51842625439167 36.431731477379799 16.485664069652557 34.934854045510292 21.977548703551292 46.711658403277397 12.886413417756556 14.304750256240366 16.091877639293671
leaf_count=354 141 725 225 156 346 10071 148 223 217 912 396 194 930 771 542 123 775 2078 137 359 136 174 102 176 214 210 772 90 207 189 227 97 553 364 151 1405 574 117 1003 185 181 4823 104 197 160 7551 10251 5340 174 170 143 146 143 157 112 113 266 658 110 131 133 579 83 137 105 267 108 443 93 399 196 669 126 113 338 122 185 347 554 646 132 1812 398 120 127 101 1528 570 186 321 102 265 116 221 793 166 128 429 745 274 194 256 100 111 111 704 294 152 119 102 197 353 149 102 115 613 563 245 323 149 304 186 410 123 132 152
internal_value=0.000506441 0.015031 0.0192986 -0.0778091 0.000654696 0.0257676 -0.083444 0.0110331 -0.0720801 0.0164568 0.0277915 0.0238995 0.0291074 0.0217919 -0.112517 -0.0508833 0.031042 -0.0541016 -0.100217 -0.0460283 -0.0988886 0.0147742 -0.000437247 -0.111399 -0.0931073 0.0256244 0.0283149 -0.0264067 -0.0636482 -0.022634 -0.0356763 -0.0785249 -0.0217513 0.00495855 -0.0405747 0.0326213 0.0335646 0.00375891 -0.00373573 0.0186139 0.0130136 0.0247444 -0.010225 -0.0505717 0.0352373 0.0308709 0.0393216 0.0338106 -0.0755149 -0.0619442 -0.0544388 -0.0665786 -0.028018 -0.0799171 -0.0685054 -0.0899382 -0.120971 -0.116216 -0.033283 0.015674 -0.0430825 -0.0283379 -0.0107945 -0.0158921 -0.138474 -0.00141231 -0.0509343 -0.0241399 0.0115303 -0.00144403 -0.0169123 -0.0391032 -0.0755989 -0.000434638 -0.0156779 -0.00411769 -0.0125697 0.0193998 0.0132696 0.0170469 -0.0387759 0.040043 -0.0345778 -0.0294519 -0.0665391 -0.0496018 0.0274195 -0.103804 -0.0912622 0.0184665 0.00103326 -0.0672307 -0.0066148 -0.0958007 -0.0391258 -0.0409135 0.00243835 -0.00107588 -0.0108869 0.0110863 -0.0632539 -0.0623287 -0.082951 -0.0335021 -0.0284393 0.00212085 -0.00724357 -0.0180302 0.00157914 -0.0729715 -0.0308697 -0.0354319 -0.0230908 -0.0594325 -0.0310694 0.0102506 0.0368643 0.0264372 -0.00106614 -0.0113599 -0.00566954 -0.0142454 -0.012433 -0.00470301 -0.0121597 -0.00275615
internal_weight=8746.65 7378.26 6934.11 1368.39 1778.5 5155.6 1286.35 1388.61 904.213 1259.12 4953.97 3782.02 2424.51 1108.62 382.139 444.152 2312.34 575.401 259.28 390.605 328.812 1357.51 283.147 241.533 229.703 1001.51 913.597 199.798 412.315 185.622 389.89 54.4673 150.503 177.644 351.199 2209.62 2127.76 270.349 138.99 1074.36 545.592 528.772 30.9196 193.289 1983.83 917.108 1066.72 735.953 44.6335 190.807 110.286 75.5655 34.7208 80.5202 359.103 55.5123 187.065 164.001 163.086 493.102 148.655 157.911 130.871 116.216 122.859 227.7 54.7506 201.634 94.4669 80.6226 37.7965 129.493 87.2795 38.6911 83.6151 54.5863 52.4895 412.48 233.78 194.41 88.3244 1171.95 116.683 27.4943 65.3916 32.1807 178.7 170.462 66.7455 82.0379 31.9022 58.1627 103.831 53.5479 137.34 124.631 200.206 172.452 95.4525 77 47.8685 59.2406 33.2109 100.787 85.6251 152.613 78.4633 47.9821 29.6632 36.5068 53.2126 71.808 63.659 39.5551 28.8265 126.831 641.486 91.4235 62.1787 90.851 73.3981 56.9124 112.165 65.4537 52.5673 38.2625
internal_count=78135 69162 65817 8973 15547 50270 8298 12519 6132 11504 48555 36672 23926 10273 2166 3345 22915 4095 1519 3001 2037 12746 2578 1435 1363 9361 8590 1618 2809 1528 3028 375 1231 1577 2688 21985 21210 2476 1213 10168 5067 5101 278 1424 19805 8980 10825 7013 325 1383 791 505 286 592 2405 327 1060 924 1286 4595 1099 1264 1116 975 647 2080 412 1715 865 726 327 1015 602 340 685 460 472 3869 2160 1813 685 11883 990 237 454 227 1709 970 400 675 287 422 892 344 1069 959 1843 1576 873 703 327 393 227 772 661 1429 725 431 271 215 404 550 547 278 223 1167 6148 808 546 776 639 490 1011 601 478 346
cat_boundaries=0 31 61 92 123 154 185 215 243 274 305 336 366 392 423 454 485 513 543 562 593 621 647 661 675 704 720 744 770 800 828
cat_threshold=687931392 16809984 8192 16 0 263168 262144 0 0 1182793728 10240 65536 0 0 0 0 0 0 0 0 24576 131072 0 0 71303168 0 0 33554432 135266308 268468352 80 0 65536 196628 16777216 0 0 67174400 96 2097152 0 524288 524801 0 0 0 71303168 2151677952 8 0 0 0 16 1245216 1024 16 0 512 65537 33554432 4 2048 0 0 0 131072 16384 671105024 524288 0 4194304 0 0 256 1048576 0 0 0 130 2 0 1024 1073741856 0 8192 1073758216 134217728 262146 1088 2048 2287468544 1 1052672 67108864 0 0 1 4196352 0 67109888 8388608 512 0 1048576 0 0 0 16 33555456 65600 0 1048592 1 1107296256 262400 128 2147483648 0 16777216 1048576 0 131088 67108864 1082130432 16 0 8 33554432 0 0 536903680 640 528384 0 0 131072 16 134219776 2097408 0 268435456 0 1073741824 268435456 32768 0 0 0 2147484168 1 20480 4096 4096 4096 0 16793600 0 0 0 2490368 0 0 512 12582912 0 0 0 32 2 0 268435456 0 0 268435456 0 2147483648 0 0 68157444 0 1207959680 0 538974728 2153285632 1 4104 1 0 66 16384 268435457 1048578 512 65552 0 520 0 2097152 0 33554432 524288 514 0 524288 0 2114 65536 0 131072 0 8388608 0 128 256 16 0 4210688 0 0 8192 0 65536 0 512 64 8912896 524417 16785408 0 16777218 67633156 16 32768 1048576 278816 67108864 0 131072 0 1073741828 16384 8192 65536 524288 134217728 256 0 512 0 1075838984 0 1744830464 0 8 0 524416 16777216 0 1048704 32768 0 2048 33555456 0 2 0 2099200 32 294912 32 0 64 0 524290 301989904 0 134234116 0 1024 32768 2048 1048576 64 134348800 0 0 0 6144 0 0 1024 0 536870912 4194305 4 2147483648 0 0 65552 65537 2097280 4 0 81920 1073741824 131072 0 2148597760 0 0 0 2147483648 131200 67108864 0 257 0 2147483648 0 100663296 0 65536 0 8388608 0 134217984 2147516416 4227072 0 8454144 2 4196356 0 16777216 1048576 2097152 16777216 16777216 8192 0 0 262144 262144 0 0 1073741824 0 0 0 0 0 0 0 0 0 0 0 0 0 0 71303168 0 0 0 4 32896 0 0 0 0 0 2228224 0 0 0 0 0 0 131072 0 0 0 0 2 0 0 0 16384 0 512 0 134217728 0 33554432 0 16384 543162368 8388608 0 2157969408 0 0 0 0 0 0 268435456 1207959616 1073741856 8192 270336 131072 9 524288 5242880 0 544 0 32768 268435456 1073742336 0 16384 0 20480 1024 2097152 8388608 201335296 512 0 2147745792 536871040 131072 0 1024 0 0 32768 0 0 0 2415919104 0 16384 0 8388608 128 524304 268435456 32768 131073 2048 131584 16384 0 142606337 513 0 2147483648 0 8192 8 18 4096 268435456 8388608 2052 8 1024 67108864 33554432 0 32768 0 0 35668992 0 0 0 0 8192 1 8192 33554564 67108868 2097152 32768 8388612 1073741824 8388608 0 0 32768 524416 134217728 0 4194304 128 16400 1073741824 268435456 2049 2147483652 0 512 4194304 0 32 256 0 1074266370 262144 0 0 0 0 0 0 0 0 0 0 0 0 0 0 0 0 0 0 0 0 0 0 0 0 0 0 0 0 0 2048 0 0 0 0 0 0 536870912 0 0 0 0 0 0 0 0 0 16384 8 2 512 256 16777216 0 67108866 0 0 1114112 2162688 1024 512 0 4 544 2097280 0 524288 0 32768 0 0 8388608 0 131076 50248 0 134217728 128 0 4194304 134217728 33554432 0 0 65536 0 0 0 20971520 0 0 512 32768 268435456 0 4096 0 0 0 67108864 68 0 0 0 65536 8 0 134218240 8 262144 128 83886656 2147549184 0 0 67141728 32 0 0 0 0 0 8421376 0 0 0 0 0 0 0 0 67108864 514 1024 16777216 0 0 0 0 0 0 0 0 0 0 0 0 0 1048576 0 0 0 0 0 0 0 524288 0 0 0 0 0 2 0 0 131092 0 0 0 65536 0 0 0 524288 524289 0 0 0 0 2151677952 0 0 0 0 16 196640 1024 0 0 0 0 33554432 0 0 525312 0 0 0 0 4194304 0 0 0 0 0 0 0 4 0 0 0 0 0 0 0 0 0 0 0 0 0 0 0 0 0 0 0 0 0 0 0 512 0 0 0 0 0 0 0 0 0 0 0 0 0 0 0 0 0 0 0 0 0 0 0 512 0 134217728 0 0 0 0 67108866 0 0 1114112 0 1024 0 0 0 0 0 0 524288 0 0 0 0 0 0 0 64 0 0 128 0 4194304 0 0 0 0 33554432 0 2048 0 0 0 0 0 0 0 0 0 0 0 0 0 0 0 0 0 0 0 262144 1024
is_linear=0
shrinkage=0.05


Tree=6
num_leaves=127
num_cat=26
split_feature=0 7 2 7 7 7 7 7 7 7 6 7 6 7 7 7 7 1 6 7 1 3 1 7 7 6 1 1 7 2 7 2 6 2 1 7 2 7 3 2 2 1 7 3 2 3 1 3 2 2 3 3 2 2 3 3 1 6 3 6 3 2 1 1 2 3 3 3 2 2 2 1 7 2 2 3 7 3 2 3 2 6 1 1 3 1 1 1 2 1 2 1 2 7 1 2 3 2 2 3 3 1 3 1 3 3 2 7 3 3 1 1 3 3 3 2 7 2 2 1 2 1 2 2 3 2
split_gain=3428.61 741.559 348.979 258.673 257.846 194.944 145.49 143.339 111.222 102.395 83.7176 80.1336 64.7105 158.105 69.6982 51.7132 47.5155 42.688 39.5549 36.6787 36.2447 32.9718 32.6698 31.7229 30.8468 28.9473 25.6545 23.8681 23.5387 23.1735 21.6413 20.6227 19.772 29.3628 20.0653 19.7511 19.3736 18.5904 20.74 18.1253 18.0676 17.7521 16.8114 16.7022 16.5191 15.4488 15.3189 15.1636 14.4745 12.9716 12.4014 12.0111 11.3301 10.9019 11.1733 10.8113 10.5797 10.3476 9.82564 9.64408 13.0152 25.9324 13.1073 11.5672 12.7688 9.89731 9.44624 9.18787 8.73734 8.38748 8.45256 8.35202 8.30648 9.60434 8.21583 8.18739 7.88915 7.75127 12.6091 10.7435 7.88463 7.50961 7.32471 6.94265 6.72739 8.77037 6.37327 6.66652 6.6258 6.33674 7.12492 6.25569 6.2402 6.20885 6.20378 6.1594 5.81347 9.94866 5.81071 5.76157 11.9013 5.57261 5.49847 5.47531 5.89436 5.46206 5.38045 5.2434 5.19808 5.0852 7.02405 5.0177 5.16165 4.9068 4.87151 4.61867 5.55578 4.56641 6.46968 5.65611 5.31588 4.56578 4.48063 4.46608 5.68027 4.44424
